0.05 0.02 0.06 0.02 0.02 0.04 0.01 0.09 0.03 0.08 0.09 0 0.04 0.09 0.07 0.04 0.01 0.01 0.09 0.03 0.08 0.07 0.05 0.04 0.08 0.08 0.08 0.06 0.02 0.03 0.07 0.05 0.01 0.04 0.09 0.01 0.02 0.08 0.01 0.05 0.01 0.02 0.06 0.01 0.05 0.01 0.03 0.07 0.09 0.02 0 0 0.09 0.08 0.07 0.05 0.03 0.01 0.03 0.04 0.03 0.04 0.03 0.05 0.02 0.01 0 0.09 0.04 0.08 0.07 0.04 0.09 0.05 0.08 0.06 0.05 0.01 0.07 0.01 0 0.09 0 0 0 0.09 0.06 0.04 0 0.06 0.03 0.04 0 0.06 0.06 0.01 0.03 0.03 0.08 0.05 0.01 0.08 0.03 0.07 0.03 0.07 0.05 0.08 0.02 0 0.02 0.02 0.0200049 0.0601473 0.0200009 0.0500016 0.030022 0.020002 0.0200178 0.0400003 0.0200012 -8.7489e-08 0.0500016 0.0300048 0.0400164 0.0100219 0.0200014 0.0899682 0.0700785 0.0505977 0.0010123 0.064319 -0.00215674 0.0300121 0.0500357 0.0197206 0.0380334 0.0596647 0.0810041 0.0099771 0.0476839 0.0101458 0.0299738 0.0747569 0.0200398 0.0740251 0.049821 0.0897446 0.0534935 0.0801452 0.0314402 0.0893153 0.0194584 0.0199927 0.0205114 0.019771 0.0202795 0.0395634 0.0299516 0.0147612 0.0900505 0.0249671 0.069756 -0.000287103 0.00486931 0.000282234 0.0111867 0.00910918 -0.000618987 0.0799915 0.0405968 0.00973376 0.0703345 0.0595941 0.0799325 0.063361 0.0800114 0.0408255 0.06993 0.0900123 0.05419 0.0425018 0.000510548 0.0897547 0.0699986 0.020173 0.0200627 0.0399723 0.0809574 0.0905955 0.0799578 0.0489054 0.0200726 0.0800536 0.0299918 0.070047 0.0834155 0.0331081 0.0805241 0.00980189 0.0800465 0.0700603 0.0500071 0.0100048 0.0307221 0.0703868 -3.68609e-05 0.0797015 0.0100277 0.0900489 0.0900048 0.0201292 0.0700785 0.0700891 0.0500103 0.0700785 -8.38515e-05 0.0600212 -8.11974e-06 0.0100231 0.0299606 0.0900405 0.0299227 0.0600064 0.0699857 0.0197406 0.089986 0.0500028 0.0111006 0.049993 0.0399932 0.0602642 0.0403739 -4.96165e-06 0.090394 0.0699856 1.12657e-05 0.0283623 0.010007 0.040332 0.0599973 0.0499533 0.0199954 0.0700023 0.010351 0.0500258 0.050065 0.070084 0.0600581 0.0299926 0.0301468 0.00999587 0.0701706 0.0495222 0.0100037 0.070082 0.0400112 0.0502186 0.0300015 0.0200083 0.0299468 0.0201605 0.0303843 0.0399851 0.0496327 0.00996686 0.000101816 0.050003 0.0609548 0.0903335 0.030008 0.00984755 0.04 0.03 0.02 0.08 0.04 0.06 0.09 0.03 0.04 0.02 0.04 0 0.08 0.03 0.09 0.05 0.040035 0.0854289 -0.000346212 0.0809201 0.0690221 0.050255 0.0707614 0.0688397 0.0385992 0.0502756 0.0597544 0.0798125 0.0551643 0.020575 0.0398745 0.0848097 0.0800237 0.040021 0.0200046 0.0701023 0.0900239 0.0201389 0.0100035 0.0600029 -9.42617e-05 0.0600325 0.0199889 -1.95471e-05 0.0499586 1.70842e-05 0.029991 1.99894e-05 0.02 0 0.08 0.05 0.07 0.07 0 0.06 0.04 0.05 0.02 0.06 0.02 0.01 0 0.03 2.67958e-05 0.0600534 1.21087e-06 0.0900975 0.0200273 0.0501002 0.0700265 0.0400358 0.00994694 0.0900477 0.00998691 0.0300494 0.0700117 0.0900906 0.0700015 0.0199956 0.010026 0.0900516 0.0800011 0.0100945 0.0700264 0.0400969 2.56996e-05 0.0400346 0.0799488 0.0400462 0.0199874 0.0300477 0.0900113 0.0800878 0.0500015 0.0799956 0.07 0.03 0.02 0.01 0.09 0.05 0.03 0.06 0 0.04 0.04 0.01 0.06 0.02 0.08 0.04 0.06 0.07 0.05 0.06 0.07 0.01 0.03 0.09 0.09 0.04 0.09 0.08 0.09 0.01 0.09 0.08 0.09 0 0.02 0.07 0.05 0 0.09 0.02 0 0 0.01 0.04 0.02 0.06 0.09 0.08 0 0.01 0.05 0 0.07 0.02 0.07 0.09 0.06 0.02 0.05 0.04 0.05 0.03 0.08 0.09 0.05 0.08 0.07 0.05 0 0.02 0.04 0.02 0.04 0.03 0.02 0.06 0.06 0.02 0.06 0.06 0.02 0.06 0.07 0.08 0 0.02 0.06 0.04 0.01 0.02 0.01 0.01 0.06 0.01 0 0.04 0.01 0.06 0.03 0.09 0.03 0.05 0 0.07 0.05 0.07 0.05 0.08 0 0.08 0.04 0.03 0.03 0.02 0.05 0.05 0.09 0.04 0.03 0.05 0.07 0.01 0.09 0.07 0.01 0.04 0.02 0.03 0.04 0 0.01 0.07 0.09 0.02 0.09 0.07 0.04 0.05 0.06 0.03 0.03 0.05 0.09 0.09 0.0800002 0.0299994 0.00999971 0.09005 0.0499976 0.00999991 0.0599999 0.0796822 0.089558 0.0801456 0.0899745 0.0700002 0.00999161 0.080143 0.0199797 0.0400004 0.09 0.04 0.01 0.04 0.09 0.08 0.07 0.02 0.08 0 0.05 0.04 0 0.07 0.03 0 0.0899907 0.0800064 -1.25951e-05 0.0597903 0.059955 0.0299352 0.0699925 0.0499102 -0.000174187 0.0300106 0.0599923 0.0299945 0.0199957 0.0501027 0.0599903 0.0199219 0.0898138 0.0401226 -0.000675191 0.0820445 0.0556599 0.0285093 -0.00303216 0.0172051 0.000760053 0.0637379 0.0198342 0.0634979 0.0191431 0.0461672 0.0197156 0.0653128 0.0514517 0.000787114 0.0602643 0.0268256 0.0536565 0.0623385 0.088607 0.0461867 0.0647533 0.00960467 0.0840748 0.0249399 0.00334266 0.0768267 0.00265289 0.0492131 0.0719637 0.0653395 0.038815 0.0801373 0.0224806 0.0617222 0.0685747 -0.0184214 0.0552137 0.0236558 0.0961574 -0.00142434 0.0354407 0.0206767 0.020932 0.0444969 0.0127158 0.0674685 0.0887761 0.0222453 0.0671541 0.0824363 0.0454196 0.0161635 0.0213884 -0.00389511 0.06234 0.0483099 0.0356162 -0.0267031 0.0409839 0.0479317 0.0740512 0.0400643 0.068048 0.0116705 0.00974709 0.0403877 0.0500506 0.000160977 -0.00235341 -0.018449 0.0205586 0.0605672 0.0136588 -0.0357942 0.0290351 -0.0388913 0.00383415 0.0823054 0.0256565 0.0316938 0.0957642 0.0162826 0.0805521 -0.0282273 0.0638275 0.0134334 0.0422115 0.0601945 0.0625425 0.0589219 0.0491129 -0.0490022 0.082412 0.0196135 0.0183268 0.0396083 0.0598167 0.0320147 0.0587345 0.0411028 0.0820686 0.0162429 0.0211178 0.0801599 0.0688477 -0.0159527 0.0296711 -0.0322177 0.0707256 0.0143413 0.0499135 -0.00173001 -0.0319148 0.0711698 -0.0074132 0.0508975 0.0805622 0.0504143 0.00456727 0.0800272 0.00338629 -0.00109381 0.039081 0.0218903 0.0499874 -0.00298888 0.0592241 0.015403 -0.0604331 0.0399662 -0.0914537 0.0441021 0.0394757 0.0439288 0.0680995 0.0299807 0.00303222 0.0521882 0.0888567 0.0238385 0.0300304 -0.0231455 0.040154 0.00411258 0.0142138 0.00520267 0.0261754 -0.00592037 0.08832 0.0012959 0.0445098 0.0100467 0.0250718 0.072137 0.0485031 0.0666175 0.0101422 0.00831074 0.066562 0.00593964 0.0587292 0.0801247 0.0452736 0.00640544 0.0779313 0.0431262 0.0675888 0.0502961 0.0487632 0.0856165 0.0496223 0.07911 0.0900429 0.0796863 0.0599606 0.0401847 0.0297543 0.0601716 0.0200444 0.0387692 0.0181306 0.0696278 0.0389987 0.0399185 0.0299486 0.0404076 0.0099352 0.0500077 0.000513248 0.0188958 0.00231966 0.0487616 0.0460786 0.014101 0.0824521 0.0603491 0.00309784 0.0881326 0.0321241 0.0381818 -0.0182769 0.0785239 0.040183 0.078319 0.0902403 0.0503735 0.00591801 0.0615649 0.0591156 0.0102124 0.0400746 0.0661515 0.0573764 0.00862412 0.0503025 0.0794045 0.00953531 0.0296167 0.0804718 0.0482943 0.0800097 -0.000118496 0.010132 0.0504028 0.0196728 0.0301874 0.0214949 0.0601782 0.0627192 0.0110516 0.0189798 0.0597192 0.0197554 0.0910924 0.0914981 0.0199551 1.14234e-05 0.0700186 0.0100001 3.20747e-06 0.0100145 0.0200372 0.00997712 0.0500093 0.0197364 2.0201e-05 0.0499176 0.0499453 0.0799806 0.0100235 0.0200203 0.0199979 0.01 0.04 0.04 0.08 0.04 0.04 0.08 0.04 0.07 0.01 0 0.09 0.02 0.03 0.08 0.04 0.01 0.07 0.02 0.01 0.09 0.05 0.03 0.01 0.07 0.01 0 0.03 0.06 0.08 0.03 0.07 0.03 0.03 0.07 0.08 0 0.08 0.04 0.03 0.01 0 0.04 0.03 0.09 0.07 0.01 0.03 0.09 0.05 0.05 0.05 0.05 0.03 0.02 0.04 0 0.01 0.07 0.05 0 0.08 0.09 0.05 0.03 0.02 0.08 0.03 0.02 0.03 0.04 0.09 0.08 0.03 0.04 0.02 0.02 0.09 0 0.04 0.05 0.06 0 0.08 0.08 0.09 0 0.02 0.09 0.06 0.08 0.03 0.08 0.07 0.04 0.02 0.03 0.05 0.05 0.02 0.03 0.08 0.01 0.03 0.08 0.04 0.04 0.04 0.06 0 0.05 0.04 0.0800003 0.0300002 0.0399967 0.0299996 0.0899935 0.0800138 0.0900001 0.0100006 0.0499996 0.0100182 0.0300002 0.0900003 0.0799914 7.81523e-06 0.0200125 -5.73878e-06 0.0600067 0.0288176 0.0399977 0.0926024 0.0312763 0.0401947 0.000777198 0.0398842 2.49778e-05 0.0606646 0.0699417 0.0723349 0.0686664 0.0700998 0.0296451 0.0223722 0.0899428 0.014086 0.0696249 0.0880949 0.0714778 0.0804819 0.0927324 0.0676692 0.0567998 0.0414057 0.00923556 0.0682208 0.0254647 0.0103397 0.0585962 0.0981963 0.00993318 0.0488488 0.0312173 0.0412491 0.0881435 0.0792581 0.0909531 0.0498137 0.0682406 0.0811604 0.0888247 0.081203 0.0200592 0.0402308 0.0593414 0.0609572 0.0706512 0.00806718 0.0716755 0.06031 0.0350412 0.0334997 0.015209 -0.0156978 0.0462179 0.0246351 0.00261004 0.005432 -0.000108375 -0.0055245 0.00614254 0.0534274 0.0531083 0.101701 -0.00448008 0.0503966 0.00594682 0.101761 0.0278235 0.00716347 0.0828627 0.0486313 0.0159785 -0.0119168 0.0436418 0.0353843 0.0588718 -0.0149243 0.0239601 0.265794 0.0155293 -0.0100742 0.049674 0.125288 0.0887666 -0.0439972 0.0269768 -0.0280315 0.0835131 0.00697624 0.0451167 0.0474295 0.00147811 0.0284658 0.0470305 0.187823 0.00174199 -0.0106763 0.0871019 0.108753 0.060673 -0.0819741 -0.00920144 -0.000935184 0.0513729 0.0154936 -0.0107871 -0.033824 0.044747 -0.10117 0.0865303 0.106741 0.00645653 0.0430478 0.048117 0.101402 0.0505023 -0.171257 -0.0592151 -0.0221053 0.068033 0.0413406 -0.0962318 -0.151774 -0.00942394 -0.102102 0.07933 0.0542956 0.0406976 0.0718339 0.0868061 0.0614413 0.126672 -0.188696 -0.0158355 0.00567657 0.0132008 0.0333351 -0.0718727 -0.139992 0.0588156 -0.150568 0.0374501 0.106333 0.0582769 0.0291696 0.0157761 0.121329 0.109187 -0.126735 0.0116981 0.0380895 0.0576213 0.0202166 -0.00395383 -0.122007 0.0366939 -0.180294 0.0254899 0.0599581 0.0318013 0.000487772 0.0838703 0.0948997 0.0724403 -0.071466 -0.0159997 0.0756472 0.0154541 0.0563208 0.0346294 -0.0164724 0.0782384 -0.0757784 0.0200316 0.047719 -0.00241387 0.0622037 0.077304 0.0420983 0.00108957 -0.0657936 0.0755342 -0.0110083 0.0734689 0.0308144 0.0226655 -0.0288558 -0.00174528 -0.0164103 0.0931666 -0.0407036 -0.00636738 -0.0177817 -0.0095816 0.100141 -0.00642439 -0.0366017 0.00751096 0.0542888 0.0191243 0.0531883 0.0530028 0.0294281 -0.0129664 -0.0220885 0.0682274 -0.234702 -0.00816446 -0.0522273 -0.104152 0.0384465 -0.134228 0.00488251 -0.070604 -0.0498009 0.0427689 0.0583446 -0.025313 -0.0659989 0.0574938 0.0363903 0.00917716 -0.21431 -0.0254193 -0.0464751 -0.146212 0.0370872 -0.151634 -0.0504687 -0.0685519 -0.061994 0.0597713 0.0799971 -0.0317825 -0.09826 0.046698 0.108395 0.0684717 -0.0627289 0.0553099 0.0293953 -0.027217 -0.0331649 -0.0171764 -0.0560192 0.0208055 -0.0756134 -0.0401771 0.0219948 -0.0304496 -0.0810644 0.0702588 0.0805493 0.0813675 -0.00450013 0.0623856 0.0733527 -0.0577128 -0.062879 0.0378053 -0.050723 -0.0646341 -0.0445103 0.013445 0.0425123 -0.0876532 -0.030997 0.0393802 0.049209 0.0811799 0.0229391 0.138693 -0.00491642 -0.0281435 0.0183866 0.0912997 -0.055901 0.0156714 -0.0020543 0.0354098 -0.00423264 -0.0501713 -0.0256564 0.0428864 0.078435 0.0113937 -0.0803325 0.111406 -0.0252995 -0.0370685 -0.0127194 0.193018 0.0402008 0.0617443 0.0798009 -0.0269693 -0.00367491 0.0805578 0.0495125 0.026686 -0.0034765 0.0631763 -0.0445615 0.0808369 0.00879137 -0.00834557 -0.0492211 0.0510647 -0.0193388 -0.0150832 0.00822375 -0.0141468 0.0275879 0.0274229 -0.0162017 0.0765529 0.070127 0.0675869 -0.0135955 0.00309366 0.0713486 0.0564882 -0.0119288 0.0321305 0.024204 0.0314826 0.0492935 0.0431835 0.0151284 -0.00399272 0.0517217 0.0720334 0.0212605 0.0188714 0.0216953 -0.0364328 0.0187573 0.0610603 0.0226853 -0.0264406 0.0184381 0.0175898 0.0845701 0.073603 -0.000135682 0.0439428 -0.0134249 0.047527 0.0827466 0.00968841 0.0878637 0.0677773 0.00993874 -0.0011512 0.0185313 0.055152 0.000825014 -0.00138056 0.0896951 0.00762824 0.0799815 0.0794895 -0.0020122 0.0400109 0.0810214 0.02 0.08 0 0.05 0.05 0.09 0.09 0.04 0.06 0.01 0 0.01 0.03 0.09 0.08 0.05 0.05 0.02 0.01 0.04 0.06 0.05 0 0.07 0.04 0.05 0.04 0.04 0.01 0.08 0.05 0.01 0.08 0.08 0.06 0.06 0 0.04 0.06 0.02 0.09 0.09 0 0.03 0.01 0.08 0.08 0.05 0.01 0.08 0.03 0.03 0.05 0.09 0.04 0.09 0.03 0.08 0.08 0.05 0.03 0.05 0.03 0.09 0.0499906 0.0499931 0.000223919 0.019737 0.0292688 -0.000320494 -1.76261e-06 0.0590934 0.00491115 -0.000732077 0.0193827 0.0399965 0.0173348 0.0699842 0.0103387 0.0760334 0.0398974 0.05968 0.0910163 0.0291525 0.0473993 0.0474424 0.0301405 0.00567827 -0.00461895 0.0680059 0.00192457 0.0505226 0.000121179 0.0412255 0.0481724 0.0088365 0.0198772 0.0412058 0.017127 0.042127 0.0586765 0.0122604 0.0633795 0.0342918 0.05462 -0.00671208 -0.00850669 0.00723639 0.0753092 0.019255 0.0461813 0.0411836 0.0787675 -0.105143 0.00184209 0.0847036 -0.0574717 0.0527863 0.0673434 0.0217167 -0.0287429 0.0207866 0.0596929 0.0387027 0.00859394 0.0080502 0.0746676 0.0278869 0.0424435 -0.22691 -0.00260186 -0.0868229 -0.171281 0.0275237 0.0126056 -0.134025 -0.00938961 0.0406055 -0.086147 -0.0079111 0.0330814 -0.0310788 0.0524634 -0.0772245 0.088544 -0.0778137 0.0169661 -0.047562 -0.253101 0.117975 0.0343686 -0.249929 -0.0228018 -0.124024 -0.101503 -0.112099 0.0212168 -0.0297124 0.012428 -0.142174 0.0797367 0.0386676 -0.106393 -0.154648 -0.219223 0.115289 0.00898268 -0.323489 -0.196308 -0.239378 -0.08507 -0.06964 0.0121212 -0.215704 0.00587084 -0.25235 0.11368 0.0347072 -0.0451737 -0.0936377 -0.2199 0.0729548 0.10024 -0.353774 -0.201672 -0.202774 -0.0947657 -0.0742195 0.0323026 -0.409306 0.0181933 -0.328384 0.0658367 -0.264407 -0.0413975 -0.0605992 -0.212707 0.137805 0.0576457 -0.355157 -0.191589 -0.184915 -0.0168243 -0.135245 -0.161155 -0.338081 -0.000210315 -0.361241 0.128932 -0.385271 0.0706081 -0.00596549 -0.125699 0.115135 0.0522119 -0.395176 -0.0925181 -0.145334 -0.0454109 -0.00719337 -0.205591 -0.362295 0.0635475 -0.421798 0.0850785 -0.14387 0.0231014 0.067993 -0.032834 0.116532 0.129633 -0.26689 0.0319385 -0.101113 -0.0644034 0.0355892 -0.231759 -0.216629 0.0368464 -0.364569 0.0294673 -0.133084 0.0508961 0.0595717 0.0329043 0.119971 0.00787237 -0.201905 -0.0857758 -0.186328 -0.0103848 0.0223172 -0.15272 -0.0837418 0.0682727 -0.182603 0.097291 -0.107579 0.0559111 0.0952756 0.0376005 0.0820233 -0.0433709 -0.0371127 -0.0464777 -0.0128251 -0.0122934 0.0078586 -0.11728 0.0014517 0.0129351 -0.114182 0.109905 -0.0766385 0.133526 0.0019486 0.0757235 0.154379 -0.042665 -0.0622305 0.0565527 -0.0398506 0.0454882 0.0385185 -0.0615601 -0.00194857 0.089568 0.00567503 0.0947497 -0.310435 0.0421106 -0.0794659 -0.0633768 -0.0957747 -0.121608 -0.0730567 0.0381495 0.0067096 0.140274 0.103668 -0.0165746 -0.133827 0.094761 0.179384 0.027742 -0.505995 -0.145456 -0.19691 -0.169005 -0.305007 -0.194216 -0.244481 -0.0700202 -0.0450357 0.199444 0.0659111 0.004463 -0.31703 0.0367204 0.140554 0.0196233 -0.692382 -0.218639 -0.208856 -0.26196 -0.320349 -0.322694 -0.308121 -0.320793 -0.0934408 0.216986 0.0144436 -0.00476114 -0.287785 -0.0424153 0.100684 0.0514312 -0.638799 -0.116377 -0.237246 -0.258492 -0.363807 -0.0915932 -0.22795 -0.446307 -0.0205073 0.0951853 0.0551416 -0.0606293 -0.169897 -0.0428934 0.111987 0.0330303 -0.542389 0.0694686 -0.223372 -0.39294 -0.381207 0.245144 -0.256925 -0.321619 -0.0761258 0.0861024 -0.0528539 -0.0958752 -0.142457 -0.0168462 0.0192218 0.00493636 -0.429667 0.110085 -0.213138 -0.327512 -0.42184 0.230788 -0.178881 -0.12369 -0.0762581 -0.0577803 0.0328733 -0.0337017 -0.0968472 0.0278146 -0.013164 -0.0181315 -0.318393 0.0207647 -0.071913 -0.0909558 -0.248402 0.0856281 -0.0972617 0.0237499 0.0136361 -0.0875572 -0.0195629 0.106218 0.0295672 0.117552 0.0441828 0.0235458 -0.248703 0.0333376 -0.0431691 -0.0691277 -0.127004 -0.101063 -0.0418015 -0.0552778 -0.0678954 -0.118497 -0.0556774 -0.0750822 -0.0641065 -0.0443758 0.00179001 -0.00666635 -0.181295 -0.0257457 0.0223221 0.029074 0.0292564 -0.131082 -0.0366148 -0.0295104 -0.0416837 -0.113653 -0.00381605 -0.0565187 -0.0848946 -0.0970096 0.039827 0.021268 0.0476044 0.0454859 0.0592808 0.118842 0.0617109 0.0693557 -0.00374932 0.0326159 0.0170043 0.0883358 0.0400785 0.00774051 0.0605398 -0.0135761 0.0077777 -5.58555e-06 0.0900711 0.0300116 0.000577147 -0.000257257 0.0197317 0.0595034 0.0402675 0.0100011 0.0705862 0.0400231 0.0505735 0.0399719 0.0300032 0.0100963 0.082173 0.02 0.06 0.05 0.08 0.07 0.03 0.01 0 0.03 0.08 0.04 0.08 0.04 0 0 0.08 0.09 0.03 0.08 0 0.06 0.05 0 0.05 0.05 0.05 0.07 0.01 0 0.02 0.06 0.01 0.0900005 0.080106 0.00997483 0.0599944 0.0398694 0.0299474 0.0100009 0.05 0.0399946 0.0100002 -4.22668e-06 0.0600001 0.0400002 0.0200939 0.0399752 0.0299283 0.0199428 0.079603 0.029927 0.0792509 0.0771644 0.0497005 0.0291577 0.0798172 0.0633759 0.0596996 0.0598144 0.0787927 0.0693179 0.0167557 0.0194875 -0.00362292 -0.000470154 -0.00037497 0.0008915 0.0182878 0.0676899 0.0503116 0.00976747 0.030042 0.0115103 0.00141314 0.02115 0.069776 -0.00769323 0.0299938 0.0188298 0.00564521 0.0107845 -0.0314767 0.03076 -0.0101276 0.0522869 0.0772284 0.0425875 0.0673694 0.0502179 0.0130212 0.0170352 0.0512498 0.0487999 0.0662579 0.0611217 0.0673327 -0.00340589 -0.199177 0.0685491 -0.0525159 -0.116493 0.0546571 0.0471094 -0.0730828 0.0493487 0.0660484 -0.0454676 -0.0172994 0.139653 0.0830447 0.0557041 0.00834745 0.0827444 -0.360908 0.02864 -0.165578 -0.353678 0.159181 -0.00951137 -0.300608 0.0788816 0.0335931 -0.164376 -0.187671 0.0998509 0.0736165 -0.0083179 -0.0414148 0.0749028 -0.455762 0.0017822 -0.436723 -0.7103 0.162191 -0.101297 -0.558098 -0.109287 -0.236183 -0.404215 -0.400061 0.021894 -0.0451913 -0.0491531 -0.237145 0.136033 -0.37454 -0.0115851 -0.346741 -0.797806 0.13381 0.0779752 -0.692284 -0.297916 -0.387998 -0.437876 -0.261648 -0.00132204 -0.271744 -0.232139 -0.431848 0.0827418 -0.335513 0.028695 -0.222855 -0.64151 0.164052 0.178825 -0.656145 -0.268814 -0.423997 -0.326303 -0.350462 0.0219071 -0.430259 -0.174391 -0.742581 0.14891 -0.10041 -0.150311 -0.0906552 -0.229753 0.134646 0.129307 -0.221638 -0.193774 -0.318322 -0.373968 -0.258854 -0.0227018 -0.59192 -0.044209 -0.686276 0.112162 -0.336708 -0.0879156 0.241551 -0.00363117 0.0373095 0.174997 -0.110997 -0.103001 -0.199554 -0.347752 -0.111095 -0.136421 -0.565765 0.0138823 -0.483861 0.0578079 -0.353006 -0.110423 0.495218 0.085317 -0.0626603 0.201467 -0.126445 0.0802719 -0.217403 -0.295006 -0.0328809 -0.189573 -0.403642 -0.0459601 -0.216084 0.0680297 -0.18892 0.0500846 0.531527 0.0871152 0.115749 0.0216791 -0.0280542 0.0616216 -0.160438 -0.197626 -0.0519482 -0.0976756 -0.0785642 -0.0410681 -0.0192358 0.104113 -0.0849607 0.233152 0.296129 0.293493 0.29596 -0.110051 0.0775776 0.0289316 0.0861591 -0.238161 -0.0218713 -0.011237 0.208487 -0.0308317 0.210359 0.121148 -0.0547683 0.259236 0.0129354 0.374302 0.226032 -0.118489 0.128604 0.105615 0.104899 0.109373 -0.0137094 -0.0442171 0.117472 0.109364 0.348038 0.107688 -0.17 0.171629 -0.144006 0.0701216 -0.0561771 -0.16615 -0.123281 0.10019 0.07902 0.58673 0.0759775 -0.150868 -0.110853 0.076532 0.427447 0.0572251 -0.334322 0.0360397 -0.251425 0.00200915 -0.176297 -0.0377203 -0.198023 0.0584728 0.208034 0.789851 0.0747376 -0.0219845 -0.25297 -0.0323244 0.249629 0.0293518 -0.611284 -0.0436864 -0.438626 -0.153639 -0.397505 0.0438392 -0.271637 -0.0314965 0.223713 0.872664 0.109058 0.0936074 -0.0831144 0.22252 0.114178 0.0170651 -0.775841 -0.00311134 -0.403767 -0.158976 -0.34479 0.105061 -0.166292 -0.168708 0.341979 0.42106 0.0435288 -0.0783707 0.0653575 0.0959698 -0.0614989 -0.0909657 -0.922618 0.215219 -0.343385 -0.433027 -0.650782 0.503169 -0.058155 -0.148189 0.235174 0.364337 -0.01629 -0.177029 -0.121306 0.241329 0.000472945 -0.0507994 -0.769523 0.17581 -0.326486 -0.350837 -0.557311 0.400413 -0.0605878 -0.06103 0.0749422 0.0106682 0.0135276 -0.296907 -0.116614 0.179154 -0.114813 0.0442727 -0.623133 0.0825627 -0.251574 0.06864 -0.426435 0.194149 -0.114631 0.0926992 0.13619 -0.245639 0.185079 0.0406975 0.00180553 0.100363 -0.147951 0.0500344 -0.64222 -0.167909 -0.16796 -0.0433753 -0.12974 -0.105225 -0.395416 -0.0683599 -0.0196368 -0.310724 -0.0616268 -0.216114 -0.110825 -0.0686008 -0.146873 -0.00291129 -0.422043 -0.22389 0.0132683 -0.136841 0.0541613 -0.227761 -0.426688 -0.106863 -0.0988899 -0.147433 -0.131291 -0.146562 -0.200932 -0.217307 -0.0270443 0.0463462 0.0875049 -0.0660399 0.0215921 0.114104 0.0973926 0.0786756 -0.20426 0.0535094 0.0573413 0.0692372 -0.068481 0.0069041 -0.0153206 0.0275269 -0.0674471 0.0885703 0.0767006 0.0834476 0.10747 0.0432293 0.0271969 0.0901038 0.0104526 0.0511473 0.0488286 0.0184873 0.0455161 0.063544 0.0933556 0.0228252 0.0560134 0.0601407 0.0501208 0.0799961 0.0800014 0.0602092 0.040009 0.000167139 0.0799327 0.0100159 -4.14475e-05 0.0299861 -1.61064e-05 0.0900604 0.0601677 0.0499969 0.0399916 0.03 0.03 0.07 0 0.01 0.06 0 0.07 0 0.02 0.06 0.03 0.05 0.08 0.09 0.01 0.0200013 0.060311 0.0599251 0.0299832 0.0396162 0.0197617 0.090004 0.089904 0.00998005 0.0400187 0.00998754 0.0300001 0.0100009 0.0702752 0.0399682 0.039786 0.0797625 0.0300882 0.0399837 -0.000153274 0.0192801 0.0596178 0.0200296 0.0403902 0.026922 0.0202991 0.0889558 0.0698112 0.0398034 0.0203393 0.019808 0.0294968 0.0776304 0.0310337 -0.0475365 -0.0264385 0.00322494 0.0838437 0.00733595 0.0205802 -0.0301789 0.0470488 0.0791333 0.0566878 0.0469542 0.0949628 0.0346246 0.0771198 0.00998615 -0.0944137 -0.00956228 -0.103229 -0.132968 0.0294105 -0.0321645 -0.000429836 -0.0404541 0.0713859 -0.029047 -0.0191394 -0.0174526 0.0721046 0.0298853 -0.0398693 0.0247536 -0.419658 -0.0699394 -0.191368 -0.30629 0.0659352 -0.0476212 -0.221459 -0.0392296 0.0332508 -0.104845 -0.105001 -0.0480182 0.104641 0.116184 -0.0645134 0.0259539 -0.486019 -0.158975 -0.439332 -0.740282 0.221392 -0.118266 -0.465962 0.061926 -0.134336 -0.40999 -0.398398 0.0456728 -0.0569032 0.0447544 -0.252913 0.0456454 -0.551529 -0.190731 -0.60811 -0.728884 0.176047 -0.0627223 -0.577781 0.048393 -0.422907 -0.608195 -0.633144 0.0288273 -0.241073 -0.131477 -0.521453 0.0545819 0.128261 -0.19032 -0.472287 -0.629539 0.135112 0.192642 -0.611458 0.0590359 -0.435041 -0.610065 -0.316664 0.135332 -0.341883 -0.471604 -0.628286 0.106395 0.396283 -0.178885 -0.31537 -0.451791 0.18869 0.351786 -0.550548 0.153797 -0.577056 -0.318947 -0.370256 0.222963 -0.440493 -0.355377 -0.929077 0.144482 0.16081 -0.0806932 0.206155 0.0777306 -0.150607 0.463309 -0.225042 0.0631908 -0.4946 -0.247417 -0.156837 0.203723 -0.271725 -0.000245256 -0.733987 0.0507926 0.340079 0.0804379 0.74352 0.232925 -0.381966 0.30767 0.283415 -0.00381036 -0.379856 -0.210306 -0.0617991 0.13322 -0.128755 -0.206691 -0.27694 0.0244647 0.309003 0.0399508 0.860628 0.132276 -0.188812 0.0550733 0.123692 -0.207104 -0.266163 -0.222457 -0.141883 -0.097798 -0.231393 -0.284603 -0.0174511 0.0677866 0.151262 0.381531 0.788025 0.300049 0.176197 -0.419404 0.276812 -0.566865 -0.129381 -0.428493 -0.153174 -0.381679 0.50213 -0.259115 0.221334 0.0770207 0.175844 0.273218 0.368257 0.514042 0.446114 -0.74965 0.00682921 -0.818753 0.00343386 -0.518807 -0.224631 -0.391318 0.771914 -0.147292 0.204681 0.135811 0.492213 0.337345 -0.167173 0.0534526 0.29713 -0.65234 -0.0941872 -0.521823 0.178456 0.102505 -0.135347 -0.246015 0.789114 0.205794 0.408127 0.113494 0.283914 0.477203 -0.639577 -0.301458 0.00736319 -0.581142 -0.135658 -0.391753 0.0938873 0.482994 -0.0385023 -0.283118 0.434906 0.238789 0.467661 0.0742653 0.224743 0.349081 -0.761906 -0.00750493 0.0785968 -0.220929 -0.161696 -0.140608 0.321238 0.779632 -0.045123 -0.245273 0.281244 0.3033 0.295611 -0.0863867 -0.0261884 0.249146 -0.671342 -0.0471977 -0.0352777 0.141748 -0.0296216 0.250488 0.347086 0.99628 -0.077842 0.140329 0.196729 0.15972 0.00490989 -0.128488 -0.571728 -0.0127312 -0.411907 -0.16367 -0.19092 0.0529045 0.0585002 0.227674 0.255525 0.662959 -0.176303 0.101169 -0.0576535 0.063605 -0.252951 -0.128813 -0.540334 0.121553 -0.0789341 -0.371186 -0.646264 0.518064 0.127885 0.283412 -0.00141704 0.502871 -0.123292 -0.0637459 -0.422784 0.359181 -0.364778 -0.0254141 -0.58368 0.219995 -0.0877764 -0.467819 -0.677687 0.538488 0.128773 0.124126 -0.150036 0.0470337 0.241428 -0.260099 -0.398413 0.263879 -0.330602 0.00989597 -0.241042 0.0493103 -0.117473 -0.244356 -0.296215 0.324804 -0.31592 0.00435312 -0.109422 -0.316058 0.361533 -0.146715 -0.154338 0.0307856 -0.355412 0.0967558 -0.539167 -0.195192 -0.0625617 -0.101333 0.0219928 0.0896929 -0.799765 -0.187591 -0.06289 -0.531303 0.246373 -0.350755 -0.203716 -0.259681 -0.330182 0.0244848 -0.517458 -0.458511 -0.0255514 -0.180139 0.0127945 -0.20224 -0.931527 -0.264394 -0.0163897 -0.269635 -0.0582243 -0.285982 -0.146929 -0.247864 -0.169236 0.0773408 -0.0736178 -0.102389 0.149183 -0.103392 0.0860368 -0.0632672 -0.339169 0.0521807 -0.0872516 0.151826 -0.0554486 -0.0171733 -0.000350945 -0.00350696 0.0778099 0.0696944 0.00720182 0.0300183 0.080959 -0.0243165 0.0118001 0.112001 0.0274425 0.0160409 0.0714451 0.117834 0.00917799 0.108857 0.136815 0.115197 0.115208 0.010519 0.0705464 0.0898751 0.000101609 0.0715954 0.0402195 0.070203 0.0397375 -0.00149984 0.0500827 0.0867809 0.0200287 0.00690728 0.0384429 0.0599348 0.0850471 0.07 0.01 0.03 0.06 0.04 0.04 0.07 0 0.04 0.09 0.05 0.02 0.07 0.06 0.02 0.02 0.0399882 0.0299491 0.00877684 0.0892442 0.0091447 0.00344694 0.00975424 0.0714738 0.070488 0.0799423 0.0499772 0.0899998 0.0399814 -5.89889e-05 0.00119869 0.0873418 0.0886861 0.0203563 0.0183879 -0.00118938 0.0731792 -0.00591864 0.0911672 0.00699823 -0.0141013 0.0513747 0.0737526 0.0775928 0.0275164 0.0115379 0.00805905 0.00345729 0.081934 0.130632 0.0185938 -0.0434585 0.0346814 -0.0309079 0.0120603 0.00864993 0.0650867 0.0666028 0.00684934 -0.0147274 0.0895857 0.105308 0.077766 -0.00953639 -0.00775247 -0.123509 0.00822419 -0.014759 -0.187426 0.0798576 -0.00545252 -0.114522 0.103032 0.0356747 0.0190135 -0.12686 0.00848262 0.112339 0.0871676 -0.0301425 -0.0536456 -0.435455 -0.0271851 -0.178843 -0.692886 0.129544 -0.00304615 -0.312746 0.092919 -0.0690117 -0.125217 -0.270143 -0.0696632 0.186056 0.113463 -0.235048 -0.0623027 -0.552027 -0.249332 -0.410814 -1.05508 0.272099 0.0384205 -0.73265 0.228669 -0.294873 -0.406731 -0.392763 -0.015007 -0.103303 0.0897594 -0.518059 0.0182144 -0.213121 -0.0880205 -0.550166 -0.633646 0.299063 0.330852 -0.770956 0.358376 -0.450224 -0.596942 -0.556679 -0.109252 -0.26954 -0.230365 -0.766444 0.0596276 0.271 -0.180024 -0.438059 -0.611366 0.10842 0.304058 -0.473749 0.46995 -0.263842 -0.593435 -0.228355 0.0612803 -0.522061 -0.247897 -0.623753 0.0693336 0.132953 -0.250466 0.0676297 -0.354628 -0.17003 0.0282296 -0.0885593 0.415718 -0.720519 -0.673022 -0.310143 0.176979 -0.706724 -0.316762 -0.495317 0.0933027 0.117862 0.0516364 0.574371 0.107146 -0.542254 0.569916 0.127232 0.236267 -0.43583 -0.16643 -0.138422 0.378362 -0.450925 0.00910185 -0.157371 0.0614458 0.828467 0.164055 0.926112 0.345584 -0.453126 0.250006 0.160619 0.0269732 -0.241012 0.153524 -0.145419 0.19815 -0.242846 -0.156178 -0.00317922 0.0993215 0.596966 0.416644 1.06053 0.285836 -0.00707574 -0.421987 0.201984 -0.584543 -0.202174 -0.205661 -0.467825 0.04387 0.168105 -0.40212 0.218159 0.167765 0.549224 0.628499 0.786034 0.383664 0.401225 -0.769178 0.138308 -1.03365 -0.0549192 -0.570331 -0.507938 -0.210742 0.718738 -0.272088 0.212925 0.236585 0.745863 0.49965 0.363896 0.527544 0.588997 -1.21886 0.194906 -0.920093 0.237702 -0.214836 -0.364387 -0.00697374 0.994623 0.0581127 0.699731 0.16739 0.772146 0.0361476 -0.3238 0.00143635 0.570596 -1.14154 -0.0198214 -0.432366 0.125256 -0.0725602 -0.165882 0.36207 0.876788 0.371131 0.750176 0.14246 0.781374 -0.031393 -0.812297 -0.318027 0.365325 -0.80318 -0.120443 -0.100314 0.0957662 0.31363 0.0727295 0.0368252 0.590036 0.461945 0.485929 -0.0270864 0.270201 0.268046 -0.671575 0.041033 0.323236 -0.391441 0.0881063 0.371068 0.363104 0.550269 0.049906 -0.342405 0.182379 0.415413 0.216251 -0.149035 -0.133654 0.198155 -0.586061 0.33409 -0.198121 0.0433528 0.269051 0.525785 0.326356 0.69548 -0.223495 -0.247989 -0.290315 0.553237 0.0492792 -0.216572 0.0484109 0.373391 -0.0987124 0.157795 -0.337175 0.496968 0.33743 0.686644 0.24057 0.771143 -0.179513 0.0901763 -0.118422 0.503289 -0.281121 -0.174788 -0.239316 0.227647 0.0825332 -0.274726 -0.49924 0.567136 0.39615 0.434585 -0.100133 0.258885 0.0905171 -0.0823614 -0.176043 0.462517 -0.585117 -0.0319361 -0.0509838 0.416023 0.432207 -0.227231 -0.853793 0.305831 0.316708 0.451457 -0.179124 0.169868 0.0658913 -0.190944 -0.517114 0.510824 -0.536255 0.0339197 -0.137759 0.218816 0.129566 -0.631214 -0.688753 0.0612547 -0.0282513 0.275584 -0.343217 -0.290661 0.15844 0.0583962 -0.157788 0.392738 -0.468247 0.0730128 -0.319625 -0.129694 -0.0265293 -0.447763 -0.0919617 0.268604 -0.923305 -0.0964994 -0.323198 -0.766984 0.270665 -0.332233 -0.0621527 -0.256912 -0.518895 0.0829499 -0.747586 -0.358357 0.0871255 -0.126735 -0.216452 -0.239405 -1.16953 -0.213266 -0.0556281 -0.437545 -0.0758535 -0.247724 -0.0376594 -0.132907 -0.203742 0.0570849 -0.233443 -0.197051 0.187603 -0.253801 -0.00559564 -0.128542 -0.39839 0.069265 -0.010343 0.10905 -0.235699 0.0248439 0.0136877 0.00744848 0.132633 0.0400169 0.0638887 0.0102371 0.188079 -0.0319627 0.0240339 0.0546339 0.0273233 0.072728 0.0980479 0.0753207 0.0061511 0.0783835 0.14048 0.119325 0.120309 0.0806193 0.0317328 0.0289629 0.00421211 0.0196902 0.071214 0.0610259 0.0286508 0.0688912 0.000118097 0.0450439 0.0400631 0.0473551 0.0590364 0.00259961 0.0225616 0.05 0.01 0 0.06 0.09 0 0.09 0.03 0.03 0.09 0.07 0.03 0.02 0.02 0.03 0.04 0.00992712 0.0897718 0.0379181 0.0582688 -0.00224797 0.026668 0.0692237 0.0636109 -0.00471188 0.00947356 0.0698213 0.039905 0.000220891 0.0797851 0.070091 0.0350545 0.0865153 0.0386089 0.0383298 0.020119 0.0086349 -0.00785894 0.0915611 -0.00147278 -0.0234271 0.0472355 0.0794999 0.0450306 0.0594408 0.0888899 0.079323 -0.0140082 0.0337703 0.160869 0.0105344 -0.0321816 0.00467135 -0.0346213 0.0944517 -0.00978695 0.0853028 0.0730894 0.154698 -0.0704505 0.126896 0.0874655 0.0468122 -0.0534434 0.0277555 -0.170238 0.0632008 -0.0855831 -0.288451 -0.068794 -0.0411835 -0.095559 0.155472 -0.0187746 0.146034 -0.20119 0.0840312 0.164558 0.115312 -0.119085 -0.0744858 -0.213329 -0.0304182 -0.168536 -0.754291 0.0609745 -0.036072 -0.185453 0.273668 -0.112149 -0.18359 -0.25475 0.0682613 0.29168 0.176867 -0.262969 -0.07215 0.165578 -0.235124 -0.350799 -0.63008 0.344169 0.332697 -0.449691 0.094378 -0.410904 -0.531203 -0.275305 0.113145 -0.0365196 0.0734955 -0.546165 -0.0367181 0.24027 -0.144114 -0.490938 -0.229374 0.20523 0.0874092 -0.345488 0.484222 -0.35086 -0.812937 -0.420661 -0.12926 -0.484097 -0.416054 -0.560731 0.12311 0.478574 -0.417621 -0.104807 -0.0914632 0.455076 -0.113259 -0.224482 0.686477 -0.5308 -0.652373 -0.348424 0.0126045 -0.933355 -0.421814 -0.414459 0.109859 -0.17307 -0.36482 0.287092 -0.147961 -0.122211 -0.129638 -0.178008 0.296204 -0.637851 -0.588294 -0.12819 -0.0586247 -0.529612 -0.32039 -0.347287 0.0740528 0.48841 -0.154273 0.49993 0.205931 -0.230206 0.108213 0.0814538 0.0556 -0.220637 -0.140598 -0.122685 0.115444 -0.175888 -0.115881 -0.0520938 0.090398 0.751667 -0.0173275 0.515459 0.683187 -0.073667 -0.0592585 0.288752 -0.118499 -0.0554383 0.129951 -0.429091 0.244494 -0.115842 -0.230088 0.0214488 0.198329 0.032082 0.247327 0.80036 0.505884 0.18853 -0.622042 0.211566 -0.328378 0.0858226 -0.370959 -0.387769 -0.0855743 0.620776 -0.577447 0.0942348 0.205947 0.189592 0.918301 0.615825 0.21899 0.39134 -1.14044 0.325908 -0.811263 0.141951 -0.28809 -0.396175 -0.124087 0.72388 -0.0922991 0.441447 0.316321 0.599278 0.851353 0.0745014 0.256031 0.655141 -1.56998 -0.0417354 -0.78584 0.247206 0.0704716 -0.256174 0.283543 0.896367 0.249382 0.806397 0.302057 0.932741 0.608581 -0.393638 -0.0578851 0.411096 -1.32016 0.0273326 -0.615298 0.006487 0.403865 -0.0458378 0.419918 0.62467 0.390741 0.81511 0.128905 0.474526 0.227667 -0.711555 -0.741686 0.352411 -0.551817 -0.0452416 -0.436864 -0.0815156 0.124276 0.169057 0.246854 0.450404 0.271808 0.41709 -0.037522 0.477029 0.0350514 -0.664057 -0.685022 0.310997 -0.138927 0.291183 -0.134679 -0.0571281 -0.281259 -0.0271218 -0.0721224 -0.109574 0.478285 0.257806 -0.138285 0.315697 0.24405 -0.526402 -0.0469111 -0.173262 0.364401 0.292451 0.0182477 0.0672782 0.153829 0.147625 -0.119417 -0.433305 0.796265 0.0158026 -0.178012 0.0222986 0.447774 -0.238517 -0.130908 -0.314668 0.231518 0.345054 0.433306 0.0441523 0.466455 0.0379384 -0.155476 -0.212071 0.766491 -0.337859 -0.119365 -0.0757367 0.325343 0.0543362 -0.27086 -0.807717 0.330233 0.412239 0.508539 -0.0128083 0.25495 0.046121 -0.0741097 -0.107812 0.777626 -0.536327 -0.0637307 0.184567 0.0916442 0.232234 -0.087997 -0.724406 -0.0837784 0.281756 0.385749 0.0690223 0.07925 0.128929 -0.329415 -0.701063 0.563902 -0.626695 0.0216277 0.0537102 0.211432 0.288012 -0.211212 -0.549206 0.0988419 -0.263382 0.468666 -0.135022 -0.359633 0.121692 -0.144454 -0.368344 0.385028 -0.594946 0.0466508 -0.581743 0.0406587 0.286119 -0.739765 0.00930032 0.0753379 -1.03855 0.081163 -0.280052 -0.947761 -0.0298702 -0.471802 0.327284 -0.161889 -0.442593 0.00297106 -0.944078 -0.388258 0.111512 -0.253509 -0.219879 -0.338097 -0.999909 -0.118095 -0.128135 -0.526461 -0.247362 -0.400956 -0.155127 0.0428266 -0.224709 0.121389 -0.322621 -0.434279 0.267041 -0.253041 0.115687 -0.286561 -0.637673 0.0567442 -0.118733 0.249142 -0.571854 -0.109443 -0.138737 0.0127004 0.117532 0.107024 -0.0388882 -0.0872664 0.172339 -0.0308558 0.095084 0.0923282 -0.0130476 0.107911 0.00277745 0.160213 -0.152721 0.0750243 0.0222589 0.120525 0.107135 0.000387884 0.0663857 0.0158225 0.0702669 0.0516881 0.0122037 0.0639211 0.0849505 0.0113837 0.0400177 -0.00177327 0.0500099 0.0141662 0.0491848 0.0358536 0.0381049 0.05 0.05 0.01 0 0.05 0.04 0 0.05 0.07 0.02 0.04 0.09 0.08 0.02 0.06 0.01 0.0663057 -0.00262512 0.0108356 0.0794637 0.0458088 0.0175532 0.0712439 -0.00991046 -0.044379 0.0603816 0.00579827 0.0159784 0.083959 0.0178258 0.00781677 0.0546724 -0.00591719 0.0870073 0.00914097 0.059568 -0.0266047 -0.0436135 0.0429131 -0.0248937 -0.111855 0.0155842 0.031153 0.0630935 0.115836 0.0306013 0.0392402 -0.0203939 0.0370077 0.224987 0.0537044 -0.108513 -0.0998553 -0.163528 0.15582 -0.041279 0.249161 0.0675473 0.275811 -0.108159 0.119186 0.177975 0.118799 -0.0868812 -0.0756941 -0.284909 0.0831855 -0.135459 -0.782527 -0.242518 -0.0204482 -0.211142 0.193543 -0.136756 0.272602 -0.204675 0.162613 0.251597 0.23125 -0.140272 -0.126937 0.184012 -0.035238 -0.194571 -0.623844 -0.0263661 0.203664 -0.27 0.22655 -0.0459825 0.0192388 -0.424791 0.280229 0.24447 0.0851133 -0.200528 -0.18313 0.298405 -0.17862 -0.241669 -0.383796 0.0850439 0.157595 -0.497754 0.21448 -0.360579 -0.308023 -0.272947 0.111869 -0.255832 -0.160269 -0.53397 0.00807519 0.461864 -0.252076 0.0486691 0.420233 0.0260622 0.0211304 -0.205334 0.768185 -0.443199 -0.393332 -0.31868 0.104682 -0.487418 -0.234658 -0.31859 0.175543 0.369528 -0.509928 0.243325 0.213008 0.114258 0.00200008 -0.208957 1.02304 -0.49738 -0.503693 -0.23652 0.114663 -0.56703 -0.320026 -0.111127 0.201302 0.307487 -0.330299 0.101231 0.0975392 -0.22812 -0.133644 -0.228555 0.492562 -0.569571 -0.174981 -0.141177 0.123801 -0.614717 -0.456126 -0.065194 0.178453 0.896521 -0.22266 0.387394 0.712281 -0.631668 0.204828 0.0120543 -0.0313369 -0.0847133 0.0516215 -0.203408 0.122579 -0.156077 -0.166471 0.186823 0.103128 0.71317 -0.191641 0.687402 0.572667 0.0718285 -0.191431 0.554447 0.00339437 0.13025 0.183736 -0.672597 0.432491 0.247705 -0.511559 0.694645 0.190815 0.424218 0.0131276 0.657498 0.395895 0.379795 -0.402537 0.383327 -0.431929 0.16236 0.269467 -0.505037 -0.0701532 0.965085 -0.493381 0.114013 0.237224 0.502919 0.293217 0.259107 -0.0389321 0.257015 -1.30581 0.393436 -0.657486 0.124828 -0.0426049 -0.226798 -0.298339 0.42256 0.00706999 0.239801 0.271013 0.47601 0.574249 -0.200724 0.261638 0.285492 -1.85519 -0.0487516 -0.613022 0.046267 -0.441606 -0.140119 -0.0781638 0.504355 0.0819501 0.333697 0.301899 0.535336 0.929412 -0.205858 0.519141 0.383063 -0.96864 0.283969 -0.33405 0.133993 -0.0743573 0.218885 0.139668 0.345528 0.156462 0.398205 0.15494 0.82325 0.676703 -0.214676 -0.090554 0.632556 0.116538 0.292097 -0.180136 -0.216581 0.245978 0.224575 0.0380271 0.285764 0.0560499 0.277917 -0.0322991 1.25043 0.202578 -0.433808 -0.554984 0.059175 0.111148 0.452869 0.0170775 0.073059 -0.186635 0.11876 0.128944 0.0983528 0.685008 -0.170376 -0.0991367 0.38464 0.35217 -0.538509 -0.533099 -0.0616705 0.245132 0.384077 -0.0540816 0.172842 -0.345484 0.173304 -0.193594 -0.160548 0.877927 -0.075871 -0.0661403 0.0844628 0.475358 -0.399395 0.068574 -0.41332 0.0107876 0.271253 0.242937 0.228065 0.305723 -0.398208 -0.46896 -0.372903 0.86253 -0.658224 -0.00361343 -0.694418 0.232016 -0.2253 0.220978 -0.72043 0.421418 0.223976 0.321977 -0.00427578 0.0309206 -0.0428535 -0.569913 -0.554385 0.501201 -0.773376 0.0243466 -0.343973 0.132345 0.194154 -0.121674 -0.584393 0.165906 0.00130674 0.227765 0.143966 -0.607402 0.114406 -0.542022 -0.855865 -0.0535956 -0.719229 0.0392245 0.0819676 0.322358 0.237711 -0.0277499 -0.410503 0.240971 -0.449613 0.321342 0.0947867 -0.166567 -0.054894 -0.053954 -0.220352 0.341226 -0.456328 0.0365648 -0.235568 0.320307 0.457222 0.186386 -0.134353 -0.0647835 -0.228584 0.351398 0.0124088 -0.517766 -0.0137549 -0.162659 0.653596 0.299453 -0.237146 -0.0554651 -0.353093 -0.262415 -0.0340932 -0.147757 -0.54019 -0.326713 -0.434294 0.124928 -0.0648819 -0.387586 -0.165876 -0.097975 0.00122421 0.159265 -0.172036 0.104787 -0.498412 -0.659539 0.39718 -0.650662 0.0336287 -0.271503 -0.894759 0.0556238 -0.175275 0.540044 -0.404009 -0.0423437 -0.282373 -0.00193543 0.0517656 0.108189 -0.00158283 -0.163284 0.29566 -0.0630378 0.0737224 0.215673 -0.116675 0.121315 0.0344829 0.221819 -0.0702402 0.193875 0.145505 0.11502 0.162181 0.0509707 0.0251812 -0.00456641 0.0192659 -0.00939259 0.0533842 0.0333586 -0.0572246 0.00068918 0.0215837 0.0241109 0.0490304 0.0251217 0.0643976 0.0339368 0.0125346 0 0.04 0.02 0.07 0.04 0.04 0.08 0.02 0 0.06 0 0.01 0.06 0 0.03 0.07 0.056124 -0.00275643 0.049134 0.0848364 -0.00984754 0.051255 -0.00791057 0.00327106 -0.089323 0.0549696 -0.0449453 0.076741 0.023967 0.0479632 0.0660625 0.0556819 0.0194884 0.0759414 0.0362956 -0.0134025 -0.0503731 -0.0660354 0.0883711 0.042269 -0.0625331 0.0548543 -0.00564483 0.104113 0.197744 0.0806461 0.000150656 0.0159006 -0.0431766 0.326973 0.144695 -0.3231 -0.21354 -0.312978 0.284087 0.00570328 0.294994 0.202287 0.337118 0.0319164 0.208081 0.233318 0.206496 -0.0894521 -0.0888824 -0.21959 0.122883 -0.318624 -0.783894 -0.499987 0.129983 -0.25451 0.250627 -0.102458 0.35203 -0.169579 0.305969 0.292662 0.266484 -0.26563 -0.128447 0.254594 -0.16249 -0.272012 -0.159859 -0.237011 0.139438 -0.211236 0.457629 0.235418 0.0857789 -0.437543 0.263091 0.159882 0.216676 -0.423362 -0.142521 -0.0826164 -0.0503948 -0.0502372 0.086976 -0.122616 0.0251104 -0.387071 0.31931 -0.108052 -0.0500484 -0.491253 0.220456 0.00437381 -0.185383 -0.388233 -0.00739462 0.215424 -0.0395246 0.257579 0.327305 0.100613 0.00103291 -0.268884 0.311632 -0.145141 -0.402492 -0.391618 -0.33439 -0.231503 -0.239734 -0.281057 0.202842 0.51909 -0.173217 0.0841151 0.0858951 -0.034824 0.128345 -0.0260763 0.944153 0.0883833 -0.138362 -0.50121 0.249026 -0.378081 -0.326597 -0.108793 0.188133 0.711767 -0.123989 0.32624 0.58603 -0.177243 -0.105376 -0.0990158 0.863718 -0.31475 0.0168096 -0.188759 0.503849 -0.495461 -0.394472 -0.265782 0.246751 1.07126 -0.231635 0.690793 1.08263 -0.538386 -0.0108398 0.260248 0.240583 0.0217087 -0.00637752 -0.240721 0.142527 0.218568 -0.277755 0.0192174 0.202842 0.926671 -0.246641 0.764626 0.620024 -0.15709 -0.266467 0.653758 0.259598 0.00103205 -0.460488 -0.755854 0.395181 0.0607797 -0.485348 0.213371 0.229623 0.098213 -0.233596 0.74456 -0.0959368 0.101648 -0.827508 0.722016 -0.470065 0.127625 0.0634988 -0.392566 0.214369 0.688422 -0.274763 0.498339 0.206758 0.328603 0.0691613 0.0694741 0.186523 0.441511 -1.40897 0.556722 -0.247879 0.164567 0.243227 -0.234216 -0.147898 0.69282 -0.271218 0.483294 0.268376 0.220454 0.308072 -0.535851 0.0866268 0.638333 -1.68781 0.460193 -0.270986 0.15022 -0.0798457 -0.207074 -0.330506 0.289976 -0.119139 0.512968 0.185643 0.22901 1.17324 -0.559343 0.345846 0.243711 -0.50153 0.57824 0.0586013 0.400155 -0.0823007 0.118741 -0.286109 0.0518813 0.154509 0.347857 0.182129 0.743008 0.835309 -0.351158 -0.367454 0.173949 0.587475 0.436553 0.0932487 -0.151595 -0.0779005 0.297744 -0.136085 0.0336285 0.470316 -0.180844 0.0196035 2.36619 0.612952 -0.112388 -0.588736 0.0373443 0.291321 0.687585 0.0578777 -0.0578989 -0.0512655 -0.0387578 0.0685508 0.287591 0.631996 -0.201349 -0.0807298 1.5786 0.606766 -0.704021 -0.741046 -0.0674712 0.237689 0.976139 -0.230678 0.0291604 -0.111384 0.218353 -0.238032 -0.167376 0.375431 -0.261278 -0.0556743 0.215594 0.657464 -0.891352 -0.197018 -0.157889 0.749712 0.8534 0.301311 0.0498345 0.412953 -0.0866534 -0.170388 -0.535316 0.3902 -0.839168 -0.0788138 -0.606616 0.487188 -0.764986 -0.00161892 -0.599016 0.477959 0.274537 0.146649 -0.272576 0.110442 -0.259423 -0.288905 -0.723171 -0.148401 -0.933167 -0.00723891 0.416401 0.353064 0.183922 -0.0930527 -0.567478 0.454065 0.0384266 0.821871 -0.0293707 -0.0230618 0.0200964 -0.188326 -0.428941 -0.115005 -0.573286 0.0128751 0.31513 0.284949 0.522999 -0.139215 -0.247895 0.128989 -0.416442 0.00044566 0.178502 0.161827 0.17663 0.0250354 -0.108882 0.49849 -0.548685 -0.00132918 -0.299256 0.289724 0.283728 0.0234647 0.0177124 0.0737335 -0.288294 -0.468344 0.0522252 -0.44716 -0.279764 0.167531 0.766549 0.238041 -0.25499 -0.0341243 -0.262058 -0.40524 -0.461896 0.304883 -0.496511 -0.417148 -0.302756 0.256075 0.0347603 -0.273726 -0.374514 0.111129 0.329615 0.0527955 -0.227746 0.174394 -0.374995 -0.744437 0.315536 -0.304516 0.171049 -0.33567 -0.6798 0.379878 -0.162282 0.627705 -0.553372 0.0977154 -0.0391201 -0.0862203 0.021235 0.159222 0.0508237 -0.160066 0.359267 0.11106 0.0713471 0.252699 -0.00909984 0.151704 0.130515 0.324656 -0.0220323 0.353856 0.187871 0.0847966 0.106779 0.0147781 0.0770702 -0.0023966 0.103833 0.0991101 0.00764702 0.0227963 -0.098091 0.0331248 0.0805531 0.0540972 0.069354 0.0497261 0.0484346 0.0621761 -0.0286986 0.06 0.03 0.04 0.08 0 0.04 0.03 0.06 0.04 0.06 0.03 0.08 0.03 0.08 0.09 0.07 0.0149683 0.0713717 0.0460326 -0.0147067 -0.0376418 -0.0234252 0.0406798 0.0654665 -0.0673302 0.0824714 -0.044741 0.0881203 0.0029962 0.0686634 0.0424845 0.00805167 0.0343557 0.0602404 0.0262086 -0.109931 -0.200242 -0.116595 0.0100602 0.0373871 -0.306501 0.0568461 0.00789961 0.123657 0.239989 0.0966035 0.0490386 -0.138483 -0.0284588 0.28336 0.0917402 -0.478788 -0.377697 -0.465457 0.251781 -0.096079 0.020467 0.179951 0.407502 0.0696827 0.329101 0.188028 0.210016 -0.231235 -0.0667391 -0.255599 0.1004 -0.28185 -0.642313 -0.428175 0.0664154 -0.277275 0.0660574 -0.0618073 0.309306 -0.124939 0.232903 0.313091 0.253823 -0.460974 -0.147697 0.208522 -0.0434082 -0.0217201 -0.0365765 -0.594303 0.248449 -0.291283 0.0881031 0.174616 0.193616 -0.0992373 0.284427 0.281481 0.209763 -0.584976 -0.1015 -0.197603 0.0445532 0.453341 -0.0413272 -0.381995 0.0761723 -0.452491 0.540997 0.0424841 -0.0113666 -0.197522 -0.0903256 -0.282173 -0.0434695 -0.564491 0.0488446 0.16192 0.207431 0.202035 0.105775 -0.156727 0.0986342 -0.121843 0.768136 -0.19413 -0.581867 -0.423814 -0.706138 -0.268425 -0.3526 -0.341219 0.241728 0.267633 -0.148106 -0.0447435 -0.0538438 0.17695 0.593882 -0.196928 1.11415 -0.21747 0.197425 -0.325879 -0.303988 -0.40173 -0.266194 -0.169406 0.226677 0.783264 -0.236753 0.373114 0.100218 -0.438076 0.112365 -0.0252408 1.01112 -0.192412 0.398988 0.102098 0.45448 0.0864725 -0.16672 -0.140601 0.217903 0.843099 -0.506228 0.490146 0.520682 -0.327973 -0.148253 0.340034 0.16739 0.00447566 -0.376275 0.345644 0.190041 0.349488 -0.213993 -0.218535 0.212721 1.08 -0.276054 0.609748 0.338074 0.193453 -0.565912 0.450165 -0.145686 -0.0782101 -0.874997 0.311835 0.284342 -0.193367 -0.655428 0.260109 0.112692 0.0313349 -0.163319 0.521556 0.0498438 0.32967 -1.35713 0.0125495 -0.479267 -0.180169 -0.484119 -0.215447 -0.0216719 0.608727 -0.520479 0.157888 -0.0443046 0.284806 -0.0544881 -0.245394 0.263603 0.640101 -1.4899 0.0599729 -0.638226 0.192543 0.54586 -0.234193 -0.135628 0.998754 -0.367495 0.704134 -0.0583239 0.746112 0.282636 -0.563179 0.51422 0.284463 -1.20022 0.338504 0.0617171 0.369183 0.703888 -0.179518 -0.0876011 0.781633 0.350168 0.703671 0.0260873 0.350846 0.717595 -0.374839 0.0642162 -0.155305 0.22324 0.223095 0.246772 0.464663 0.164159 -0.120028 -0.277042 0.626167 0.469479 0.340476 0.165204 0.70859 0.67922 -0.229938 -0.637852 -0.358592 0.763626 0.445016 -0.346583 0.0415211 -0.246988 0.0658183 -0.280805 0.174881 0.504802 -0.248323 0.136308 2.59861 0.436522 -0.0754387 -0.945755 0.0158782 0.39469 0.264433 -0.85839 0.1095 0.0123266 0.247456 -0.424839 0.359558 0.0775086 0.18811 -0.0878173 2.07767 0.339559 -0.680961 -1.35957 -0.282646 0.0258597 0.804075 -0.422243 -0.0776498 0.130904 -0.00576559 -0.00206927 -0.455345 -0.329066 -0.215572 -0.10081 -0.372028 0.409561 -1.22218 -0.525042 -0.515516 0.925911 0.749848 0.0774602 0.0121749 0.309892 -0.0850463 -0.239427 -0.676367 -0.511258 -0.794891 -0.0829489 -0.328775 0.511009 -0.573919 0.232284 -0.584617 0.72897 0.357267 0.113871 -0.212162 0.211575 -0.242906 -0.195556 -0.450869 -0.625612 -0.986951 0.065176 0.50714 0.58057 0.187627 0.252015 -0.424637 0.334503 -0.397119 0.0791142 0.375371 -0.0301903 -0.0203276 -0.245354 -0.0642789 -0.150568 -0.455961 -0.0170216 0.0419932 0.237296 0.375112 0.0499363 -0.247442 -0.220237 -0.267502 0.259431 -0.0636309 0.198263 -0.0762997 0.278974 0.0776539 0.498388 -0.378518 -0.00496553 -0.315858 0.20299 0.493486 0.154101 -0.043836 -0.175668 -0.0705715 -0.644308 -0.218221 -0.127441 -0.196495 0.245463 0.568437 0.301479 -0.542808 -0.0728296 -0.103595 -0.349331 -0.670489 -0.115157 -0.374769 -0.5255 -0.148314 0.151304 -0.0221439 -0.0272883 -0.302982 0.0112019 0.206783 0.028837 -0.22539 0.145216 -0.702941 -0.587218 0.116843 -0.264364 -0.198358 -0.213655 -0.206758 0.716694 -0.0302902 0.664811 -0.58589 0.183837 0.160753 -0.113917 -0.0472879 0.200128 0.0937398 -0.0739349 0.452734 -0.0540309 0.196565 0.175222 -0.00943292 0.267927 0.160479 0.380118 0.0966191 0.217424 0.190259 0.0535811 -0.0095407 0.0574444 -0.0126532 0.0503724 0.0219416 0.0512162 0.0696908 0.0870148 -0.0462152 0.0521121 0.0477863 0.0805668 0.0551577 0.0864082 -0.014487 0.0676585 -0.0134756 0.02 0.05 0 0.01 0.03 0 0.07 0.06 0.02 0.01 0.09 0.01 0.07 0.01 0.01 0.02 0.00985188 0.00230826 0.0274999 0.0338023 0.0299499 0.0159866 0.0134765 0.0651395 -0.124317 0.0470568 0.0713867 0.0288522 0.000987684 0.0672395 0.0313781 -0.091905 0.0346081 0.0652869 0.0311898 -0.104029 -0.270884 -0.141313 -0.0312166 0.0187179 -0.475237 0.0175406 0.0942764 0.135866 0.223385 0.105327 0.0829061 -0.130437 -0.104597 -0.0313204 0.0673309 -0.536315 -0.717835 -0.49865 0.236626 -0.0738942 -0.197821 0.00801372 0.446698 -0.0542079 0.464285 0.275839 0.270255 -0.297011 -0.0463506 -0.450116 -0.00238289 -0.172282 -0.615311 -0.522401 -0.0295477 -0.394584 -0.0811529 -0.21865 0.390058 -0.0646102 0.239577 0.201125 0.308123 -0.509563 -0.0760739 0.0453378 -0.25577 0.290362 -0.301984 -0.809258 0.586771 -0.19749 -0.0104253 -0.238096 0.322966 0.0150443 -0.0172256 -0.144329 -0.0156598 -0.574738 -0.0596118 -0.657887 0.0113451 0.622372 -0.371021 -0.477263 0.0484888 -0.572708 0.128767 -0.160806 -0.163293 -0.0781318 -0.513059 -0.495658 -0.347099 -0.527874 0.121306 0.20904 0.311468 0.371973 0.0874501 0.156688 0.397624 -0.192134 0.770943 -0.0437585 0.14732 -0.287588 -0.402785 0.277049 -0.161821 -0.326893 0.275615 0.365377 -0.122283 -0.292863 0.387101 0.335124 0.255867 -0.208131 1.30602 -0.227558 0.123245 -0.211039 -0.382566 -0.296276 0.0117593 -0.296347 0.305581 1.24173 -0.466063 0.212504 1.05971 -0.42069 0.168056 0.148414 0.84426 0.0261767 0.00982239 0.168061 0.252509 -0.0315414 0.0370271 -0.117313 0.184711 0.948778 -0.266173 0.731731 1.0579 -0.435863 -0.0354726 0.383769 0.380663 0.236228 -0.26538 0.617142 -0.175311 0.635376 -0.0654102 -0.192789 0.0601787 0.331364 0.0174115 0.915245 0.187111 0.171079 -0.440525 0.13865 -0.118452 -0.218358 -0.70488 0.332761 -0.214164 0.203816 -0.376472 0.0802442 -0.166568 0.254753 0.257999 0.0901449 0.3977 0.199686 -1.64487 0.0407291 -0.0888373 0.134012 -0.493104 -0.353846 0.380045 0.680942 -0.435139 0.515926 -0.40645 1.0346 -0.0379968 -0.905336 0.588147 0.0675203 -1.78434 0.221412 -0.0749771 0.146168 0.454963 -0.224922 0.471016 0.866518 -0.0311242 1.05247 -0.29808 1.18804 0.167171 -1.59374 0.0239372 -0.376974 -0.615356 0.64401 0.403914 -0.0148043 0.0780023 -0.4621 0.23481 -0.0485559 0.556395 0.589274 0.0723767 -0.102249 0.139576 -0.577166 -0.00593069 -0.556616 0.208776 0.0851 0.330821 0.290867 -0.249285 -0.298643 -0.520916 0.0469204 0.538437 0.152527 0.206957 -0.241724 0.0412915 -0.281743 -0.961715 -0.435533 0.568535 0.356966 -0.370527 0.103728 -0.236673 -0.112507 -0.529174 -0.0811702 0.386342 0.101912 0.0761615 2.45437 -0.295121 -0.255226 -0.798968 -0.30892 0.254574 0.544293 -0.249876 0.0909199 -0.209069 -0.204644 0.380284 -0.535164 -0.196986 0.22037 -0.0666876 1.75155 -0.470869 -0.277046 -1.02687 -0.293112 -0.0758281 0.760908 -0.267495 0.00311145 0.0393015 -0.193987 0.456399 -1.01973 -0.853478 -0.0170869 -0.0187973 0.112785 -0.181395 -1.00568 -0.547179 -0.294213 0.914255 0.541998 -0.577863 0.17323 0.234067 -0.0937158 -0.0880235 -0.421879 -0.81651 -1.08476 0.0950113 -0.0836215 0.200854 -0.384284 0.556533 -0.313657 0.912357 0.14969 -0.319801 0.0326234 0.202024 0.0141559 -0.700029 -0.106218 -0.331745 -0.980102 0.112155 0.265995 0.279489 0.00684496 0.246581 -0.573547 0.516536 -0.116215 -0.316054 0.360048 -0.110938 -0.265627 -0.816145 -6.99611e-05 -0.357598 -0.470496 -0.00128056 -0.0984451 0.298102 -0.0379921 0.0345458 -0.817637 0.0376961 -0.0836632 0.323995 -0.234718 0.301884 -0.355767 -0.54841 -0.0927374 0.236771 -0.386031 0.0175125 0.0918538 0.181056 0.496854 -0.101737 -0.342864 0.202181 0.0755475 -0.554511 -0.158604 0.199909 -0.160662 0.157146 0.102918 0.103682 -0.556375 -0.110405 -0.0276825 -0.187522 -0.681611 -0.0681204 -0.476333 -0.223642 -0.00783971 0.345689 -0.0234182 -0.117089 -0.408948 0.219274 0.107841 -0.107276 -0.444301 0.182703 -0.514118 -0.498282 0.216022 0.0331205 0.242672 -0.146387 -0.655434 0.676586 0.0737328 0.914108 -0.405511 0.102642 0.00688041 -0.105388 -0.327394 0.121232 0.0921067 -0.0842486 0.688841 0.0355754 0.343947 0.17807 -0.0197415 0.306538 0.131816 0.340629 -0.0754648 0.247077 0.160611 0.0432499 -0.145204 0.0255742 0.0796042 -0.00129546 0.0958188 0.129465 0.0711946 0.115934 -0.0284308 0.1036 0.0789788 0.0931813 0.0593999 0.0915073 -0.00801267 0.0649277 -0.094357 0.00986314 0.019978 0.0798898 0.0596147 0.029423 0.0399774 0.0899867 0.0100007 0.0565367 0.0498124 -0.000168955 0.0399117 0.0799361 0.0293833 0.0497369 0.079714 0.0521947 0.0249658 -0.0217725 0.0593457 -0.0358708 0.0424196 0.0705756 0.00621728 -0.199213 -0.0267205 0.0904923 -0.00103725 -0.000229803 0.0342357 0.0773307 -0.106591 -0.0145368 0.116788 0.047225 -0.0970521 -0.347947 -0.147885 -0.0473329 0.0404807 -0.674906 0.010512 0.127114 0.0732843 0.169566 0.179433 0.0160971 -0.242152 -0.0804015 -0.0913532 0.0432923 -0.626045 -0.834609 -0.544266 0.219165 -0.0591812 -0.387096 0.093946 0.737955 0.131467 0.506271 0.273591 0.24147 -0.412872 -0.00966381 -0.486352 -0.26615 -0.133778 -0.368405 -0.376339 0.306326 -0.155697 -0.132308 0.0569692 0.692879 0.436121 0.312874 0.184579 0.24965 -0.53154 -0.072394 -0.0717931 -0.352934 0.394829 0.0933139 -0.554718 0.709545 0.178698 -0.131605 -0.233534 0.26526 0.13531 0.434479 -0.218986 -0.000649272 -0.460204 -0.130749 -0.444265 -0.162741 0.916398 -0.0770034 -0.914067 0.477942 -0.260976 -0.345392 -0.24118 0.0697925 -0.0818841 0.0537637 -0.0216297 -0.238323 -0.231043 0.046495 -0.349516 0.0689662 0.72606 -0.421513 -0.151959 0.331404 -0.593459 0.424986 -0.169528 1.02034 0.141452 -0.440612 0.346466 -0.128722 0.0905426 0.224489 -0.0122179 0.0440139 0.138224 -0.149665 0.188221 0.224826 -0.217698 0.463387 -0.533619 0.657156 -0.019645 -0.9874 -0.421649 0.123308 -0.15818 0.309691 0.759682 -0.522296 0.366642 0.205782 -0.463749 0.242814 -0.151608 0.188913 -0.254407 -0.275511 -0.239371 0.0771357 -0.116456 0.0612869 -0.537166 0.227253 0.825648 -0.0420911 0.801252 1.05055 -0.344061 -0.268501 0.32497 0.531761 0.136929 -0.876593 0.235596 -0.0550825 0.61688 0.246694 -0.00544825 -0.0246282 -0.0114491 -0.23662 0.339096 0.928739 -0.0566098 -1.10383 -0.0118355 -0.236296 -0.323727 -1.19194 0.0150259 0.386538 0.315841 -0.305349 -0.307983 -0.186945 0.329646 0.0801644 -0.134807 0.531614 -0.326561 -1.54191 0.140866 -0.780119 0.029027 -0.402702 -0.18561 0.733207 0.822946 -0.464052 0.564635 -0.280721 0.511732 -0.0962684 -0.884192 0.206404 -0.382905 -1.10023 0.416995 0.0234926 0.237848 0.320238 -0.122531 -0.0524277 -0.0800378 -0.00718482 0.795288 -0.10505 -0.50321 -0.136838 -1.5388 -0.375261 -0.100643 -0.350845 0.434601 0.629311 0.292604 -0.128819 -0.0929644 -0.729394 -1.20194 0.550364 0.605846 0.224849 -0.793956 0.0171825 -0.832265 -0.377416 -0.420311 -0.0756594 0.604842 0.537527 0.301896 -0.662084 -0.450465 -0.784718 -0.727028 0.185576 0.403348 0.186565 -1.09922 -0.284101 -0.284693 -0.254211 -0.099276 0.291879 0.724674 0.763952 -0.107268 -0.471443 -0.288765 0.204031 -1.20757 0.020357 0.288322 0.205005 0.489485 -0.581837 -0.240823 -0.499938 -0.064101 0.411585 0.657594 0.481116 0.0633643 -0.632401 -0.00988065 0.854049 -1.22331 -0.438098 0.426758 0.100968 1.54684 -0.33584 -0.817131 -0.542031 0.0192642 0.313301 0.946805 -0.304815 -0.00931359 -0.551942 0.180929 0.672942 -1.11688 -0.533848 -0.14058 0.117804 0.170908 -0.579751 -0.501535 -0.408564 -0.313507 0.698461 0.134916 -1.24667 -0.699782 0.252629 -0.311855 -0.20112 -0.862222 -0.432902 -1.37182 0.13888 0.478076 -0.320177 -0.133855 0.285014 -0.433761 1.15721 -0.197112 -0.918147 -0.504803 0.120457 -0.22439 -0.448606 -0.417497 -0.209498 -1.17814 0.133783 0.287766 0.0432409 -0.00301879 -0.066743 -0.418431 0.293604 -0.558674 -0.66224 -0.00982709 -0.585726 -0.339462 -0.728166 -0.320266 -0.569687 -0.498227 -0.104181 0.471057 -0.160543 -0.129816 0.324021 -0.859331 0.0535533 -0.192011 0.156164 -0.0122023 0.213644 -0.508137 -0.481233 -0.449946 -0.1048 -0.233573 0.0400057 0.311838 0.0398589 0.20739 -0.169888 -0.0977672 0.511901 0.161847 -0.0329396 -0.0727065 0.485532 0.257237 -0.401901 0.10189 -0.0824046 -0.422361 -0.109899 0.197908 -0.201041 -0.497825 -0.181055 -0.613315 0.0954567 -0.0350113 0.462447 -0.0235757 0.21203 -0.275673 0.116613 -0.256231 -0.243287 -0.565855 0.188994 -0.452646 -0.686284 0.378842 -0.120001 0.0145844 -0.218592 -0.654798 0.649505 0.0718195 0.80416 -0.308029 0.131149 0.14122 -0.0850631 -0.179241 0.0980728 0.11849 -0.0829922 0.623683 0.150259 0.241208 0.133287 0.0968659 0.3519 0.16848 0.560706 -0.0334296 0.262489 0.316328 0.0912938 -0.00475603 0.0421483 0.0659009 -0.0324637 0.105354 0.129247 0.106641 0.0953422 -0.0531615 0.0406409 0.0562841 0.0699368 0.0657211 0.113507 0.082621 -0.00203619 -0.120122 0.0592322 0.0399189 0.0597485 0.0191052 0.0587112 0.0236759 0.0901924 0.090229 0.0836336 0.0796002 0.0499016 0.0195643 0.0499959 0.0094938 0.0194506 0.060164 0.0432413 0.0391419 0.0485771 0.0805079 -0.0105976 -0.0277352 0.0398928 0.0428822 -0.123443 0.0860215 0.0522155 0.022999 0.0818132 0.0449818 0.0482682 -0.00450258 0.0307335 0.151954 -0.0139214 -0.136095 -0.304058 -0.0908697 -0.0919254 0.0727797 -0.593935 0.153403 0.0878983 0.122813 0.0800486 0.144117 -0.101367 -0.159296 -0.0678099 0.244073 0.0140584 -0.65478 -0.749468 -0.687819 0.21586 -0.18712 -0.5668 0.244792 0.640749 0.201253 0.223775 0.405687 0.31785 -0.523916 0.0521188 -0.645086 -0.308248 -0.132046 -0.546885 -0.446232 0.0641085 -0.108961 0.127063 0.159491 0.903293 0.0697276 0.147857 0.452789 0.0759397 -0.631305 -0.0706126 -0.199993 -0.109525 0.904901 -0.244293 -0.388769 0.447422 0.126032 0.0152878 -0.100324 0.503061 -0.0644543 0.344759 0.109405 0.00622988 -0.514357 -0.171375 -0.145772 -0.257842 0.666952 -0.346553 -1.04048 0.718765 -0.476457 -0.545883 -0.335067 0.165977 -0.17061 -0.0483011 0.0280525 -0.00261565 -0.0125111 -0.0508895 -0.317945 0.0852605 0.710121 -0.474428 -0.025518 0.598613 -0.352414 0.336645 -0.116334 0.99544 0.117446 -0.308541 0.156182 -0.0538046 0.264994 0.156077 -0.718254 0.0465425 0.274645 -0.715902 -0.0571831 0.227755 0.23176 0.358273 -0.310672 0.691622 -0.124444 -0.597425 -0.799224 0.0941075 0.199754 0.329039 -0.490043 0.236209 0.55584 -0.121125 0.235513 -0.0233141 -0.0482339 0.193281 0.157754 0.180922 -0.026382 -0.332783 -0.289148 0.297909 -0.0270216 0.331586 -0.519233 -0.120916 0.656829 0.607365 0.255713 -0.291182 0.0807691 0.0934463 -0.312203 -1.04049 -0.224379 -0.869852 -0.726499 0.36405 -0.727285 0.193364 -0.960658 -0.360789 0.351015 0.719952 -0.184749 -1.39906 -0.0164458 -0.532597 -1.34984 -1.76687 -0.102577 -0.2048 -1.3991 -0.0403089 -0.762686 -0.0261798 -0.500738 -0.40196 -0.106697 0.700586 -0.410387 -1.66484 0.537804 -0.557567 -0.133273 -0.97719 0.276517 -0.244254 -0.434123 -0.327019 0.643137 0.0618486 -0.632957 -0.430157 -0.587518 0.435948 0.0784767 -0.779315 0.973065 0.445637 0.112516 -0.0100454 0.429363 -1.03516 -0.737613 0.336244 0.767286 0.24589 -0.897359 -0.392395 -0.444409 -0.06986 -0.00109559 -0.510987 1.37073 0.88858 0.00360691 -0.444831 0.010817 -1.37795 -0.942686 0.667239 0.546574 0.45378 -1.08279 0.0169013 -0.548643 -0.202412 -0.00887272 0.0711031 1.35157 1.09504 0.148606 -0.709549 -0.0568268 -0.0272648 -1.20793 0.0237628 0.203185 0.506889 -1.5205 -0.29733 -0.405846 0.196728 0.192909 0.250547 1.00457 0.709953 0.112347 -0.858764 -0.240623 1.22638 -1.85329 -0.205456 -0.0184663 0.485803 0.237099 -0.194729 -0.447731 -0.0884926 0.273127 0.34115 0.815419 0.451987 0.115354 -1.13417 -0.00238077 1.48716 -1.20553 -0.0258581 0.440882 0.398497 1.53574 -0.0526819 -0.432577 -0.237104 0.646654 -0.00298946 0.76159 -0.174931 -0.0816694 -0.653278 0.307721 1.06061 -0.785173 0.229256 0.137112 0.365112 0.511818 -0.417362 0.0528733 -0.050244 0.0878682 0.696796 0.43926 -0.755911 0.0909813 0.326453 -0.0133631 0.425596 -0.427275 0.147147 -0.834382 0.232311 0.197743 -0.618609 -0.061258 -0.0756124 -0.316694 0.624159 -0.0151041 -0.898785 -0.215037 -0.078489 -0.157938 0.108885 -0.221909 -0.472445 -0.911772 0.108977 0.134187 -0.149507 -0.107418 -0.0141103 -0.61871 0.110531 -0.0565899 -0.291831 -0.200227 -0.478248 0.0634426 -0.187861 -0.35782 -0.720686 -0.20261 -0.0529334 0.408378 -0.0782963 -0.274704 0.263881 -0.865376 -0.0816214 0.029869 -0.137042 -0.412405 -0.0757206 -0.425441 -0.191776 -0.867656 -0.160742 -0.147213 -0.0311336 -0.316453 0.116737 -0.00761681 -0.420398 -0.273605 0.0581366 0.0735012 0.54424 -0.360735 -0.120916 -0.45682 -0.261127 -0.580503 -0.375208 -0.665162 -0.129593 -0.243451 -0.190506 -0.313662 -0.187007 -0.737973 0.000895197 -0.12683 0.228696 0.196353 -0.119805 -0.638632 0.209173 -0.59746 -0.542484 -0.841613 0.112813 -0.403143 -0.554949 0.442074 -0.145047 -0.285634 -0.46159 -0.38918 0.473963 0.0542694 0.439862 -0.400619 0.260607 0.0249402 -0.134595 -0.128295 0.14397 0.0273877 -0.195501 0.633678 -0.050134 0.0945684 0.160076 -0.0904018 0.322142 0.0348729 0.627727 -0.0459096 0.238201 0.32247 0.0871387 -0.0037468 0.109042 0.0839827 -0.0117704 0.0821734 0.175089 0.114386 0.170459 -0.101784 0.0632987 0.0432689 0.0328962 0.0655672 0.0642004 0.0363428 0.0202064 -0.0810154 -0.000520886 0.0699632 0.0899889 -5.6953e-05 0.00997171 0.0141452 0.000246355 0.0202529 0.0613542 0.0500121 0.0803022 0.0697301 0.0501511 0.0509393 0.0500298 0.0308794 0.0557653 0.0541405 0.0844204 0.0567315 0.0261001 0.0863928 0.0815977 0.0786259 -0.00340034 0.059276 0.11981 0.0253639 -0.00184329 0.079508 0.0712429 0.0972748 0.0957497 0.133214 0.0509123 -0.249596 -0.164054 -0.0792673 -0.0989777 0.00844843 -0.474122 0.196221 0.0357218 0.123874 0.0675363 0.300344 -0.110984 -0.142009 0.0535745 0.251391 -0.0439872 -0.586267 -0.56794 -0.718022 -0.103963 -0.271584 -0.535391 0.193009 0.30049 0.284195 0.110846 0.269597 0.152758 -0.661688 0.171341 -0.784804 -0.357614 -0.242938 -0.424702 -0.754794 -0.0718548 0.15993 0.695156 0.142538 0.611625 0.144694 -0.0229096 0.0523568 0.0767396 -0.826388 0.0374577 0.0831572 0.0206142 0.243277 -0.400034 0.0834817 -0.0611303 0.173848 0.150309 0.0497763 -0.0124371 0.0534957 0.194371 0.212385 0.0180201 -0.488913 -0.191191 0.119946 -0.172712 1.04368 -0.279355 -0.538116 0.505063 -0.417582 -0.354786 -0.182249 0.463158 -0.321339 -0.211727 -0.0199689 -0.186041 -0.249266 -0.122543 -0.306099 0.00813382 0.958591 -0.273106 -0.327911 0.0380596 -0.298951 -0.257458 0.168894 1.18964 0.135004 -0.462565 0.150383 -0.397917 0.484613 0.129367 -0.280027 0.0318785 0.647942 -0.584821 -0.150142 0.172114 -0.148707 0.052645 -0.336303 1.38855 -0.0910426 -0.320408 -0.670426 -0.172257 -0.168455 0.461117 -1.14996 0.0386008 0.689479 -0.948894 0.200314 -0.030176 -0.416698 -0.358059 -0.0451572 0.964235 0.0649855 -0.753554 -0.669036 0.340928 -0.355004 0.555423 -0.950681 -0.333749 0.997799 -0.501515 0.784055 0.256766 -0.51301 -0.358899 -1.18875 -0.54099 0.277229 -1.23066 -1.54723 0.762328 -0.617472 0.54621 -1.00218 -0.787705 0.34102 0.177188 0.280845 -0.634584 -0.220343 -1.05484 -1.63051 -1.73721 0.388 -1.13928 -2.00456 0.0959584 -0.397302 0.423601 -1.70873 -1.01553 -0.00231406 0.124485 -0.420399 -1.17286 0.419359 -0.182347 -0.116203 -1.33376 0.76966 -1.3652 -1.09732 -0.308213 0.404527 0.379548 -1.46567 -1.14167 0.263589 -0.0514111 -0.190702 -0.943489 1.05729 0.567491 0.260538 -0.46934 0.760835 -1.22484 -0.66373 0.0422837 0.508754 0.449277 -0.639279 -0.880932 0.0618447 0.146937 -0.00817404 -0.725573 0.695245 0.0831947 -0.103506 -0.863924 -0.0297406 -0.079347 -1.05943 0.290574 0.336985 0.656093 -0.931576 -0.0659889 -0.712003 0.289428 0.129434 -0.30737 0.560585 0.339175 -0.151439 -0.950238 -0.0781453 0.944997 -1.20663 -0.0841285 0.188535 0.683023 -0.147212 -0.0226847 -0.583745 0.528649 0.210147 0.0147689 0.275191 0.325794 0.135591 -1.24402 0.179694 1.3824 -0.713257 0.316506 0.581747 0.652048 0.117582 0.187594 -0.662424 0.0995776 0.589028 -0.436695 -0.238387 0.132025 0.253348 -1.37997 0.518721 0.711957 -0.0745755 0.622666 0.742043 0.539351 0.430596 0.435072 -0.0109397 -0.164283 0.528056 -0.316141 -0.063646 -0.228494 0.526153 -0.432941 0.458884 0.632376 0.197476 0.785449 -0.0733406 0.395971 0.838995 0.0696267 0.124432 0.0158005 0.0690502 0.326936 0.149281 -0.814148 0.74949 0.254338 0.14661 0.619907 0.479528 0.365578 -1.07985 0.320462 -0.0447301 -0.575368 0.0131167 -0.129253 0.0215448 0.178405 -0.0965589 -1.40852 -0.131738 -0.310572 -0.152321 0.0373814 0.14871 -0.620284 -0.946964 0.215048 0.176825 -0.121944 -0.0275566 0.149237 -0.248164 -0.1521 0.0323255 -0.744757 -0.553723 -0.474378 0.0325957 0.0273696 -0.379808 -0.61314 -0.346603 0.0939668 0.427646 -0.290478 0.0419287 0.394531 -0.297336 0.211883 0.15682 -0.199546 -0.609189 -0.315935 0.121355 -0.309004 -0.398681 -0.422807 -0.313946 0.0482177 0.266631 0.0878725 0.161591 0.0754279 -0.0693164 -0.129165 0.347046 0.364569 -0.127133 -0.109204 -0.437189 -0.122887 -0.335882 -0.708173 -0.419764 -0.0925514 -0.373646 -0.258815 -0.161884 -0.315349 -0.842141 0.0116325 -0.102645 -0.361919 -0.0854643 -0.447239 -0.488222 0.300659 -0.638226 -0.651329 -0.571184 0.048391 -0.228343 -0.505106 0.592252 -0.182787 -0.448911 -0.287284 -0.175855 0.445364 -0.177391 0.270445 -0.351022 0.337905 0.213872 -0.211509 -0.125696 0.115456 0.129771 -0.210843 0.743685 0.00886707 0.258296 0.244351 -0.0954137 0.362927 0.079994 0.748122 -0.07786 0.407311 0.188476 0.0227605 0.0684605 0.0705737 0.0588419 0.0349942 0.121552 0.105495 0.0616452 0.151086 -0.136539 -0.0337671 -0.0154852 0.116987 0.0894308 0.0622575 0.0725979 0.0334319 -0.0734911 0.0399783 0.0399985 0.0499995 0.0599976 -1.17787e-06 0.0401729 0.0900102 0.0500104 0.0300563 0.0600004 0.0200125 0.0299887 0.0700062 0.0500392 0.0400011 0.0700366 0.0885724 0.0885609 -0.000681112 0.0657087 0.0231669 -0.0182999 0.0544476 0.0340459 0.00600398 0.00599737 0.180709 0.065116 -0.038931 0.079894 0.116015 0.0313616 0.0647688 0.15894 0.0396185 -0.18089 -0.071614 -0.0142101 0.0145564 0.027397 -0.449404 0.138153 0.064526 0.146928 -0.141016 0.391387 -0.158481 -0.0809011 0.0814057 -0.144773 -0.13067 -0.579425 -0.478871 -0.739984 -0.382978 -0.289837 -0.70307 0.18172 0.0417524 0.308233 -0.138864 0.124013 -0.0387168 -0.707461 0.141677 -0.695322 -0.555598 -0.125688 -0.212616 -0.826761 -0.234969 0.0678207 0.162912 -0.248838 0.828559 -0.039407 -0.558241 -0.156203 -0.076019 -0.6268 0.0284257 -0.204341 -0.268765 -0.194175 -0.675666 -0.00762495 -0.0572354 -0.0357173 0.291959 -0.0492907 0.223151 0.0278782 -0.265429 0.123105 0.109982 -0.358406 -0.29059 0.376458 -0.0183278 0.676426 -0.41694 -0.59899 0.0849256 -0.360067 0.309705 -0.227064 0.131262 -0.147945 -0.133321 -0.376232 0.105456 -0.089361 -0.197193 0.405767 -0.382212 1.07097 -0.53593 -0.876705 -0.217549 -0.200444 -0.149365 -0.367223 0.809726 -0.0186796 -0.291116 -0.0444622 -0.474676 0.449949 0.191432 0.0908426 -0.0746296 0.814531 -0.732706 -0.0735582 -0.513487 -0.179857 -0.444949 -0.275738 1.6696 -0.0906291 -0.0127362 0.102724 -0.139372 0.131662 0.514576 -0.568859 -0.0723502 0.760456 -1.39899 1.02609 0.0694147 -0.923604 -0.646881 -0.368954 1.20443 -0.253485 -0.101903 0.240082 0.0194558 -0.0811371 0.58264 -0.52022 -0.510399 0.600795 -0.789434 1.5994 0.756287 -0.868667 -0.283031 -1.09868 -0.156072 0.425912 -0.781896 -0.594195 0.446277 -0.312018 0.480656 -0.314995 -1.09584 -0.182333 -0.242739 0.604291 -0.0837649 -0.734011 -0.54375 -1.03331 -1.21616 0.42726 -1.02229 -0.833235 -0.104944 -0.0495541 0.387934 -1.05018 -1.06508 -0.232034 0.127584 0.0780174 -0.599614 0.0166789 0.090029 0.262303 -0.644501 0.394116 -0.845054 -0.0933111 -0.582413 0.22117 0.337991 -0.657626 -1.0312 -0.00657046 -0.116312 -0.108133 -0.835378 0.648046 0.0753283 0.0604673 -0.738072 0.097785 0.0863466 0.118648 -0.070197 0.589463 0.477911 -0.273228 -0.573624 0.206537 -0.0911118 0.169014 -0.801105 0.421516 -0.138164 -0.0505207 -0.850702 -0.0337255 1.18357 -0.354687 -0.0757225 0.603645 0.39464 -0.493248 0.152927 -0.598272 -0.172216 0.22132 -0.639923 -0.257568 0.246471 -0.091601 -0.756656 -0.246054 1.27137 0.108325 -0.0988228 0.493029 0.444854 0.388699 0.457472 -0.866107 0.111473 0.502852 -0.350703 -0.3817 0.669548 0.299686 -1.08576 -0.0183399 0.506301 0.495495 0.300126 0.646969 0.385783 0.292826 0.467003 -0.443841 0.115542 0.271386 -0.413236 0.0102469 0.750811 0.641659 -0.34394 0.136825 -0.0820542 0.979307 0.577854 0.883727 0.301879 0.0786683 0.32661 -0.01493 -0.0550466 -0.111358 -0.304813 0.00862169 0.0652031 0.52187 -0.115392 -0.704014 0.253276 1.06138 0.63388 -0.374061 0.222931 0.125567 0.0727181 -0.403279 0.286969 -0.136005 -0.109697 -0.133957 -0.53432 0.764965 -0.0535705 -0.325606 0.187087 0.281499 0.247596 -0.615376 0.13228 0.138149 0.10696 -0.435691 0.321579 -0.617597 -0.0632089 0.126102 -0.789183 0.0136238 -0.317391 -0.0128554 0.0628184 -0.198914 -0.22356 -0.37499 0.119664 -0.0765514 -0.0739305 -0.282148 0.472315 -0.479793 0.127182 -0.183418 -0.908685 -0.632546 -0.361278 0.0594711 -0.108538 -0.351765 -0.587668 -0.398441 0.250607 -0.353558 -0.376652 -0.369042 0.0683365 -0.202954 -0.0361333 -0.265836 -0.724482 -0.842383 -0.249661 -0.147477 -0.76693 -0.341402 -0.72439 -0.672364 0.157183 -0.217835 0.00737316 -0.0697778 0.0336633 -0.091965 0.179509 -0.0759691 -0.0779956 -0.593366 -0.155251 -0.00508217 -0.27284 -0.407986 -1.01556 -0.59921 0.0205298 -0.0469971 -0.427411 0.03385 -0.264169 -0.758812 -0.0750286 -0.325215 -0.287982 -0.0494684 -0.239343 -0.193626 0.180143 -0.709718 -0.640676 -0.827107 0.0389593 0.147905 -0.368547 0.531421 0.159011 -0.368843 -0.305335 -0.209747 0.557977 -0.0542491 0.70114 -0.532908 0.189013 0.136499 -0.145757 -0.146353 0.144655 0.0362961 -0.255905 0.650103 0.0167226 0.314561 0.164709 -0.0677434 0.313698 0.0299868 0.77605 -0.0464285 0.208853 0.0265578 -0.00627296 -0.0211964 0.0241807 0.0634342 -0.0200783 0.103129 0.140861 0.105111 0.1689 -0.0709874 0.0196099 0.0156928 0.0731202 0.0789154 0.171506 0.0441336 0.0742504 -0.0764701 0.05 0.06 0 0.02 0.03 0.07 0.08 0.01 0 0.05 0.04 0.05 0.08 0.09 0.05 0.06 0.057013 0.0732818 0.0366877 0.00762223 0.0117188 0.0292113 0.0748136 0.0558337 0.0342796 0.0342409 0.333645 0.0352486 0.0208395 0.0909962 0.13473 0.0278541 0.101678 0.198471 -0.0163934 -0.160087 -0.1088 0.00791744 0.104637 0.0505476 -0.413127 0.159115 0.0351306 0.219149 -0.182357 0.274395 -0.0369955 -0.18748 0.0812437 -0.129609 -0.429863 -0.800042 -0.564898 -0.579516 -0.279204 -0.300767 -0.927183 0.255745 0.234161 0.165219 0.0566256 0.119848 0.0821323 -0.395701 0.13358 -0.235206 -0.51169 -0.436143 -0.00232869 -0.758791 -0.278379 0.0680831 0.23686 0.0130843 0.850863 -0.0461685 -0.16192 -0.196566 0.0898929 -0.253919 -0.0428341 -0.353502 -0.124468 -0.32203 -0.142943 -0.54883 0.0984668 -0.109553 0.216665 -0.260339 -0.22289 -0.322322 0.013661 -0.446052 0.322512 -0.467066 -0.174226 0.147144 0.0145756 0.487805 -0.807363 -0.852955 0.0134237 -0.538144 0.699131 -0.431379 -0.148822 0.2369 0.107402 -0.503545 -0.0433948 -0.127854 -0.050535 0.327853 -0.0678194 1.19257 -0.223278 -0.496909 0.0447387 -0.389094 0.0120983 0.0567042 0.841349 0.565529 0.109764 0.201251 -0.230746 0.426814 0.176121 0.139072 -0.203495 0.765952 -0.481057 0.0291836 -0.45957 -0.0648688 -0.310693 -0.00887451 1.62222 -0.0322366 0.323881 0.127237 -0.0319549 0.0531054 0.353278 -0.0984934 -0.0244565 0.433386 -0.72188 0.996085 -0.192855 -0.490259 0.0145475 -0.324572 1.27004 0.103562 0.529937 0.568223 0.113718 -0.31319 0.361621 -0.55982 -0.244446 0.219658 -1.73871 0.908833 0.00935884 -0.90382 0.197113 -1.21083 0.391143 0.12574 -0.19045 0.0276701 0.00661447 -0.398864 0.318147 0.29323 -0.936986 -0.543677 -0.433246 0.328861 0.211945 -1.07895 0.115469 -0.571819 -0.0739577 0.630669 -0.596894 0.326034 -0.329051 0.233777 0.157881 -0.572103 -0.816084 -0.43647 -0.645055 -0.00714395 -0.681195 -0.416111 -0.146176 -0.0852401 -0.367661 0.280579 -0.00343262 0.883393 -0.474122 0.363337 0.166447 -0.580504 -0.650511 -0.234055 -0.972479 -0.239393 -0.959547 0.383004 0.227693 0.0607931 -0.208017 0.584233 1.10487 0.914061 -0.315699 0.449331 0.197549 -0.165788 -0.322704 -0.516423 -0.236605 -0.0855262 -0.788942 0.356405 0.0473111 0.158314 -0.590027 0.554796 1.43043 0.283045 -0.375528 0.444157 0.356115 -0.277352 0.259423 -0.854604 -0.478692 0.277703 -0.633412 -0.0767394 0.497053 0.215019 -0.155188 1.03629 0.792428 0.564877 -0.104414 0.585038 0.379811 0.663815 0.617957 -0.342453 -0.636944 0.566604 0.245196 0.30614 1.10173 0.662174 0.346512 0.248645 0.434539 1.06878 0.120567 1.05024 0.289147 0.69895 0.311594 -0.214902 -0.00210519 0.204913 -0.102833 0.509148 0.644603 0.282476 0.0124741 -1.08013 0.354995 1.0041 0.0292299 0.154637 0.129961 -0.348133 0.18502 -0.507633 -0.266283 -0.44693 -0.168876 -0.129838 -0.0559922 0.555332 -0.61996 -1.05868 0.527355 0.65379 0.254892 -0.711057 0.10635 0.170269 0.272269 -0.299059 -0.0642449 -0.335563 0.094793 0.157131 -0.144669 0.920186 -0.197554 0.0334634 0.575253 0.141462 0.308589 -0.27765 0.138076 0.196534 0.313449 -0.160076 0.286613 -0.405371 -0.0855887 0.00107777 -0.163348 0.739561 0.118769 0.544719 0.139531 0.112756 -0.19491 0.0726799 0.211192 0.128242 -0.136231 -0.0730321 0.200973 -0.802504 0.26611 -0.148464 -0.578312 -0.332708 -0.069516 0.0327759 -0.275591 -0.0234424 -0.752582 -0.250299 0.264528 0.0708027 -0.317025 -0.383033 0.28922 -0.707284 0.038369 0.2157 -0.593326 -0.696369 -0.220735 -0.0131689 -0.551927 -0.501412 -1.00507 -0.24037 0.239509 0.201735 -0.171763 -0.100702 0.390909 0.0260615 -0.00493283 0.388596 -0.0947301 -0.454862 -0.373613 0.116706 0.0804516 -0.733005 -0.940283 -0.235104 -0.00450825 0.273284 -0.360773 -0.0374709 0.0134471 -0.685558 -0.373671 0.049416 -0.0513865 -0.24588 -0.313026 -0.372519 0.351585 -0.341183 -0.592347 -0.418618 0.000532178 0.0364943 -0.362407 0.780953 0.0437976 -0.539639 -0.293656 0.0268162 0.421801 -0.123994 1.126 -0.459035 -0.250271 0.0108307 -0.134107 -0.278152 0.122371 -0.0583922 -0.225125 0.512325 -0.10661 0.212212 0.0584118 -0.115409 0.0940647 0.00831675 0.624398 0.0550045 0.126931 0.0905791 0.00931945 -0.317128 0.0836065 0.045339 -0.00633773 0.029776 0.113597 0.0273118 0.163416 0.000355724 -0.0123605 0.0133021 0.0843963 0.0598934 0.107498 0.0161023 0.0867463 -0.0367767 0.07 0.05 0.04 0.09 0.07 0.03 0.05 0.06 0.08 0.02 0.06 0.06 0.03 0.05 0.04 0.02 0.0272297 0.0934047 0.0936438 0.0688081 -0.0112207 0.0338498 0.0878129 0.0670769 -0.0114666 0.028909 0.0891728 0.0318139 0.0203694 0.102866 0.0640272 0.0375372 0.0341181 0.185048 -0.0377759 -0.170921 -0.0763913 0.0442893 0.00576751 0.00582387 -0.2581 0.125856 -0.107337 0.0696573 -0.0409489 0.182592 -0.0227785 -0.270227 0.0409243 -0.282834 -0.404445 -0.765664 -0.257576 -0.532181 -0.326964 -0.2484 -0.799244 0.149854 0.0497174 -0.0915357 0.269741 0.232231 0.0251711 -0.367085 0.123094 0.108745 -0.334083 -0.283559 0.167659 -0.425782 -0.253919 -0.0363075 0.313308 0.184026 0.797946 -0.0642422 0.266765 0.0656173 0.088799 -0.196515 -0.0118808 0.4462 0.356058 -0.288334 0.296244 -0.755152 0.126404 0.292448 0.427688 -0.124267 -0.139488 -0.425383 0.168086 -0.483266 0.442687 -0.210155 -0.0752548 0.278913 0.240501 0.823117 -0.0948585 -0.641666 0.0427675 -0.219478 0.170302 -0.0658853 0.259412 -0.0293656 0.00624273 -0.22441 -0.0373604 0.105361 0.0331377 -0.0920877 -0.146553 0.921112 -0.134705 0.259713 -0.343701 -0.371538 -0.26365 0.147405 0.942879 -0.182237 0.0388648 0.219693 0.00634771 0.0940555 0.253296 0.113606 -0.101042 0.466007 0.0586026 0.733886 -0.189291 -0.0683503 -0.434551 0.150135 1.30751 0.0563604 0.210268 0.0346792 0.0612578 -0.263959 0.351505 -0.921797 0.335425 0.212443 -0.06288 1.02524 -0.152208 0.147458 0.14846 -0.287823 0.722025 -0.304736 0.150735 0.215749 -0.163028 -0.415857 0.369893 -0.196664 0.0841305 -0.230345 -1.0391 0.780628 0.0295996 -0.37629 0.486437 -1.09423 0.783577 0.0510351 -0.565552 0.392721 -0.590313 -0.286256 0.289604 -0.265368 -0.538008 -0.0772767 -0.402573 0.183329 0.0966018 -0.745433 0.120471 -1.33883 0.171498 0.2829 -0.56733 0.441914 -0.78609 0.426066 0.248634 -0.425186 -0.424985 0.181407 0.118447 -0.196444 -0.290848 -0.381106 0.391318 -0.274723 -0.0738807 0.354536 0.329467 0.606978 -0.700111 0.360793 0.226957 -0.735547 -0.540742 0.0880432 0.0925211 0.0184009 -0.445137 0.41701 0.582466 0.397177 0.0548038 0.734135 1.21691 0.954996 -0.676292 0.451378 0.285685 0.520172 -0.634099 -0.216958 -0.0930079 0.49302 -0.862451 0.0535907 0.421895 0.388613 -0.318514 0.41644 0.767901 0.54289 -0.606004 0.338459 0.318972 0.770471 0.106401 -0.142352 0.0406944 0.58222 -0.217252 0.0695023 0.246193 0.664881 0.191239 -0.12601 0.335348 0.830463 -0.184617 0.402319 0.285756 0.602159 0.582992 0.0215813 0.126105 0.505692 0.0229325 0.0653643 0.450425 0.781951 0.447814 -1.34446 0.597992 0.561092 0.0280345 0.549965 0.0944757 0.055439 0.466512 -0.117641 0.110485 0.553775 -0.34386 0.0930625 -0.129021 0.193029 0.0497492 -1.53505 0.572675 0.227697 0.178986 -0.192673 0.00348204 -0.32137 0.164776 0.0253024 -0.142314 -0.258784 -0.278095 -0.720344 -0.184603 0.59691 -0.194248 -0.46466 0.398413 0.163441 0.326034 -0.528504 0.0522282 0.0380304 0.335961 -0.237596 -0.29094 -0.405321 0.0427676 -0.36551 0.415129 0.685924 -0.0499229 0.110372 0.0626097 0.14487 0.237063 -0.443787 0.0562727 -0.330616 0.0264173 -0.083701 0.406073 -0.451532 0.190826 0.00153302 0.041235 0.572021 -0.380747 0.557105 -0.14238 -0.170842 -0.273121 -0.251111 0.121564 0.0640627 0.0357132 -0.820198 0.313487 -0.752886 0.163212 0.360509 0.120665 -0.0134865 -0.62145 0.118859 -0.0158792 -0.190365 -0.701487 -0.374294 0.244709 0.152993 -0.0723496 -0.510743 0.304383 -0.43308 -0.0128214 0.0307478 -0.138768 -0.417506 -0.428044 -0.118114 -0.562334 -0.431722 -0.770608 -0.15331 0.295377 -0.375431 -0.00327976 0.124518 0.336702 -0.180749 -0.137294 0.0379771 0.0736228 -0.774796 -0.625386 0.0672906 -0.396005 -0.559372 -0.719688 -0.250266 -0.00605288 0.105467 -0.202639 0.386595 0.433222 -0.392862 0.0377424 0.104698 -0.0221781 -0.219176 -0.0957756 0.00533631 -0.0682711 0.00820393 -0.395763 -0.287865 0.0217432 0.339106 -0.247235 0.879199 0.0184041 -0.465951 -0.111757 -0.0223144 0.367223 -0.163489 1.29325 -0.229753 0.0134894 0.342935 -0.176425 -0.110394 0.0371713 -0.0805742 -0.134877 0.421645 -0.208108 0.0743496 0.0149205 -0.100245 0.0806543 -0.085533 0.459184 0.0184107 0.0408728 0.15241 -0.00160734 -0.19853 0.0974571 0.129383 -0.0159223 0.00731764 0.0976951 0.0464516 0.106874 -0.0197462 -0.0492411 0.00500722 0.0789604 0.086502 0.118328 0.0112104 0.083769 -0.119409 0.08 0.08 0.09 0.02 0.07 0 0.04 0.01 0.06 0.09 0 0 0.01 0.07 0 0.08 0.00445024 0.0836084 0.0359973 0.00258425 0.0597784 0.0483509 0.0221559 0.0883721 -0.115653 0.0792622 -0.0443638 0.0304376 0.0541773 0.0871806 -0.0177414 -0.0848092 0.0641101 0.0786969 -0.0222901 -0.111689 0.0557821 0.0133595 0.0151373 0.133824 -0.246191 0.0290985 -0.160922 0.0139242 0.0193169 0.141293 -0.109095 -0.326937 -0.103238 -0.551446 -0.444647 -0.912922 -0.241653 -0.483107 -0.430886 -0.123921 -0.774305 0.0324416 -0.486139 -0.606803 0.0182816 -0.00129047 -0.364639 -0.519604 0.11798 -0.32853 -0.208949 0.0676629 0.101408 -0.120452 -0.139492 -0.489248 -0.187146 0.206855 0.457699 -0.23004 -0.0208415 0.0913527 0.0102864 -0.3131 0.0990768 0.0618939 0.171668 0.0157188 -0.110025 -0.585733 0.104878 -0.235997 -0.177795 -0.0778774 -0.160757 0.335344 -0.313656 -0.252809 0.250665 -0.196613 0.0607647 0.269237 0.154196 0.688022 0.0239141 -0.849198 -0.218396 -0.278193 0.0858066 0.211901 0.406629 0.414573 -0.179258 0.0963118 0.216381 0.275409 0.108178 0.0378048 -0.276882 0.813969 0.138561 -0.273314 -0.336574 -0.260769 0.0739144 0.337423 0.950441 0.00592388 -0.225215 -0.476991 -0.161988 0.268154 0.303525 -0.259322 0.0757363 0.514052 -0.030454 0.474265 -0.508839 -0.149171 -0.208478 0.242956 0.840905 -0.658848 -0.465385 -0.592802 -0.253084 -0.0727105 0.301933 -0.556293 0.516613 0.389744 0.100168 0.89263 0.31052 0.277763 0.130354 0.0461699 0.797598 -0.231279 -0.388194 0.103931 -0.294939 -0.140331 0.32922 0.0756905 0.248461 -0.320693 -0.979493 0.67837 0.166991 -0.456809 0.5721 -1.2489 0.941461 0.0734081 -0.0467524 0.215558 -0.343969 -0.110138 0.349223 -0.4992 -0.0881988 0.175335 -0.417996 0.375446 0.0986664 -0.926027 -0.0933172 -1.10039 0.481739 0.103917 -0.0822603 -0.0830667 -0.680585 0.124421 0.40348 -0.654241 -0.355261 0.13255 0.860396 -0.00253268 -0.221687 -0.685089 -0.089461 -0.520648 0.361888 0.00029665 0.689124 0.0990598 -0.59307 0.546397 0.318107 -0.0403474 -0.43354 0.314966 0.371246 -0.0359231 -0.356267 0.0210892 0.296431 -0.0445732 -0.0841525 -0.0175706 0.658836 0.339654 -0.495895 0.697768 0.399836 0.31268 -0.331566 0.226517 -0.246237 0.436058 -0.110536 -0.182722 0.495189 0.445151 -0.379945 -0.84261 0.402398 0.430628 -0.0606422 0.509294 0.307578 0.3715 -0.0312769 -0.0442435 0.0864074 0.331175 -0.178272 -0.290638 -0.065235 0.167109 -0.55059 -1.66598 -0.152821 0.659361 -0.0243508 0.401823 0.195255 -0.563361 0.372751 -0.377969 -0.253742 0.289026 -0.200974 -0.34565 -0.0144842 0.0289397 -0.193948 -1.74854 0.389408 0.650339 0.00435751 0.0758847 -0.0357529 -0.140563 0.368369 -0.0795184 0.14242 0.30473 -0.220581 -0.342739 0.0124384 0.133849 0.0680363 -1.02924 0.324168 0.692985 0.217849 0.10089 -0.0939022 0.0355639 0.00118043 -0.0906104 -0.290666 -0.225266 -0.149321 -0.742716 -0.378583 0.381389 -0.00350197 -0.263886 0.141056 0.627314 0.0663683 -0.628713 -0.102982 -0.244335 0.207658 -0.332496 -0.503571 -0.818942 -0.164165 -0.0368616 0.00918197 0.62097 0.0695881 0.167129 -0.110965 0.36837 0.0262676 -0.661569 -0.059965 -0.501271 0.0400425 -0.0318562 0.0767762 -0.697172 -0.0896977 0.375081 -0.0861793 0.853818 -0.294095 0.600545 -0.0153407 0.00512886 -0.214365 -0.705338 0.0716143 0.468756 -0.0488214 -0.421461 0.354627 -0.810988 0.322018 0.215987 0.0861221 0.39844 -0.147783 0.52465 -0.336548 -0.359879 -0.464239 -0.386394 0.121555 -0.110227 0.127068 -0.364919 0.397675 -0.332285 0.259731 0.00528365 0.460732 -0.18103 0.00491035 0.559901 -0.255904 -0.702126 -0.501827 -0.27468 0.13882 -0.70901 0.19481 -0.281066 -0.133844 -0.0165132 0.06965 -0.107028 0.306497 -0.927543 -0.481009 0.0778501 -0.0718594 -0.470541 -0.542729 -0.256211 -0.015697 0.386806 0.0413857 0.473067 0.6175 -0.0788988 0.365585 0.326451 0.478792 -0.189075 0.459209 -0.174783 0.189902 -0.055889 -0.240045 -0.0742519 0.00806333 0.26235 0.0794187 1.05773 -0.0383099 -0.35535 -0.224847 0.056235 0.200601 -0.0999381 1.22182 -0.279078 0.0169392 0.504342 -0.127295 -0.00962783 0.0405517 -0.0898852 -0.0025446 0.399188 -0.261617 0.0523928 0.04034 -0.143625 0.0499695 -0.0667892 0.284994 0.0555661 -0.00796878 0.192469 0.00630477 -0.0621449 0.048687 0.11622 -0.00406924 0.0332108 0.096194 0.0541273 0.144518 -0.123253 -0.00807338 0.0215801 0.0672483 0.111618 0.0945556 0.0577048 0.0558794 -0.0421723 0.03 0.02 0.07 0.05 0.09 0 0.02 0.04 0 0 0 0.02 0.08 0.08 0 0.09 0.00663591 0.028717 0.0111629 0.0243259 0.0636085 0.0314153 0.0287813 0.0780475 -0.0789859 0.0184589 -0.0576709 0.0494771 0.0784362 0.0701212 0.0249284 -0.0539025 0.0179155 0.0339787 0.0476132 0.0204968 0.107431 -0.000533801 -0.0306762 0.0329544 -0.412649 0.0930543 -0.324701 -0.00551317 0.0230682 0.124096 -0.200332 -0.393716 -0.0620023 -0.323092 -0.296254 -0.621695 0.0196068 -0.423291 -0.277659 -0.0559664 -0.693224 0.163832 -0.629869 -0.585576 0.00540677 0.0267938 -0.421285 -0.422448 0.234605 -0.0994694 -0.206744 0.0996348 0.15825 0.481664 -0.113624 -0.384517 -0.590042 0.0699782 0.027125 -0.236637 -0.439977 0.12115 -0.188655 -0.269387 0.228659 -0.493603 -0.268027 -0.188004 -0.153221 -0.354388 -0.259255 -0.109771 -0.162217 0.0486365 -0.60958 0.00649753 -0.177074 -0.340849 -0.141074 -0.102519 0.131335 0.538515 0.00217593 0.323358 0.565816 -0.625563 -0.245244 0.232925 0.469406 0.196442 0.179249 -0.200738 -0.0110686 -0.560496 -0.0474758 0.068847 0.188886 0.174227 -0.190352 0.247785 0.111048 0.0563714 -0.199606 -0.160614 0.212622 0.353755 0.788563 -0.109655 -0.198945 -0.246025 -0.246747 0.114158 0.205978 -0.435551 0.236944 0.141624 -0.190654 0.569507 -0.0812916 0.104987 0.759373 -0.0594699 0.675224 -0.0256533 -0.27989 -0.465574 -0.386089 -0.353065 0.275317 -0.203293 0.357576 -0.101761 0.18529 0.733027 -0.0991942 -0.00320548 0.548941 -0.668443 0.696332 -0.146621 -0.0484018 -0.191086 -0.137288 -0.477028 0.294774 0.327378 -0.0946822 -0.219842 -0.804879 0.305327 -0.15362 -0.169374 0.788137 -1.21872 0.785958 0.0146911 0.186999 0.356451 -0.120375 -0.0442346 0.301476 -0.248621 -0.0370857 -0.221339 -1.36392 0.371792 0.00639111 -0.477574 0.0772347 -1.02457 0.573088 -0.253472 0.369551 0.336854 0.0515348 0.0310099 0.260864 0.356841 -0.189743 0.208227 0.315518 -0.200863 -0.130593 -0.11975 0.169494 -0.427358 0.823475 -0.320658 1.08135 0.594054 -0.221909 0.824812 0.282347 0.31982 -0.352684 0.129996 0.449738 -0.269823 -0.380575 0.228151 0.0440699 -0.166904 0.219702 -1.10857 0.672199 0.287268 -0.461484 0.61458 0.315903 0.263417 -0.0391512 -0.278195 -0.0900788 0.217117 -0.518406 -0.359895 -0.0575261 0.031626 -0.376637 -1.53061 0.439004 0.0391365 -0.445134 -0.0659379 0.232149 -0.218875 0.188703 -0.291566 0.0922317 -0.0319926 -0.426569 -0.485487 -0.20727 -0.114603 -0.422223 -1.57235 0.287976 0.357773 -0.0925608 0.0573333 0.017868 -0.582945 0.158834 -0.172039 0.109904 0.343522 0.125938 -0.523278 -0.727342 0.0665261 -0.413787 -1.45701 0.263378 0.515895 -0.147876 -0.151863 -0.0320845 -0.475909 -0.274128 0.0186597 -0.292432 -0.0533069 -0.32584 -0.636528 -0.244162 0.187405 -0.578636 -0.630442 -0.271526 0.498702 -0.00778995 -0.110988 -0.133283 -0.146372 0.0419873 0.0673311 -0.314876 -0.081762 -0.357955 -0.300952 0.199409 0.864644 -0.265244 0.192866 -0.17561 0.856214 0.258493 -0.245348 -0.102501 -0.120923 0.221172 -0.191993 -0.59198 -0.43889 -0.449743 0.0446335 -0.183495 0.821332 -0.276539 0.570819 -0.00817934 0.251941 0.208391 -0.672925 -0.143108 -0.164842 0.00248371 0.0468229 -0.438213 -0.724279 -0.103132 0.482179 0.0681864 0.757886 0.0324058 0.362463 -0.173921 -0.257685 -0.0386995 -0.614409 -0.0584482 -0.528292 -0.276233 -0.070052 -0.208866 -0.63748 0.295148 0.441337 0.270995 0.516263 0.271031 0.512917 -0.0255965 -0.466766 -0.195013 -0.301759 0.00018559 -0.666017 0.057018 -0.674297 0.313858 -0.132476 0.216067 0.189859 0.627031 0.0484989 0.04108 0.378126 -0.0653139 -0.403437 -0.268301 -0.299844 -0.0100756 -0.599124 0.128725 -0.424315 0.427684 0.325533 0.384546 0.368671 0.535682 -0.338809 -0.113594 0.0216636 -0.141542 -0.346216 -0.475759 -0.10011 -0.0246703 0.385747 0.0468771 0.374211 0.522289 0.0802546 0.0787663 0.542731 0.506669 -0.244075 0.178741 -0.205222 0.128539 -0.057458 -0.367393 0.169588 0.0252015 -0.0767536 0.0167058 0.774471 -0.00389096 -0.448676 -0.298135 0.201128 0.284582 -0.072657 0.852567 -0.283519 -0.225982 0.270697 -0.228589 0.00673512 0.0693494 0.0490383 -0.0212295 0.325787 -0.0585379 0.0563532 0.0409137 -0.0844916 0.035866 0.0312969 0.226272 0.0453895 -0.0514345 0.14726 -0.0241106 0.0288011 0.00306787 0.0832009 0.00502944 0.075052 0.0505935 0.02324 0.0510341 -0.0584175 0.0701778 -0.000146422 0.0827796 0.089779 0.065422 -0.00473375 0.0803773 -0.0424001 0.09 0.05 0.09 0.04 0.04 0.08 0.02 0.05 0.02 0.06 0.05 0.02 0.09 0.02 0 0.07 0.00805289 0.00331579 0.0138982 0.0811704 -0.0197306 0.0281612 0.0444011 0.0284587 -0.0481747 -0.0117626 -0.0373434 0.0793821 -0.0149665 0.0788899 0.0398285 -0.0583257 -0.0137779 0.086809 0.0663639 0.00356431 0.0583196 0.0662286 -0.0538279 0.0456066 -0.174003 0.0458625 -0.222827 -0.0323616 0.0899022 0.0785357 -0.0618062 -0.215927 -0.0587108 -0.325196 -0.232779 -0.422547 0.16147 -0.22801 -0.22517 -0.127951 -0.603529 0.150598 -0.57883 -0.442595 -0.108233 0.0608134 -0.335524 -0.287795 0.202153 -0.0341344 -0.25978 -0.297237 0.0353939 0.297666 0.0168714 -0.247257 -0.387064 -0.0112422 -0.332153 -0.217293 -0.28242 0.139066 -0.123168 -0.0347672 0.273381 -0.158765 -0.251074 -0.0886256 0.268094 -0.0479919 -0.18946 0.352134 0.261098 0.330344 -0.4003 0.0397572 -0.31117 -0.106954 0.0788779 0.0597223 0.194535 0.205725 -0.267259 0.417281 0.374931 -0.370014 -0.389223 0.170998 0.481875 0.244944 0.184009 0.174371 -0.310714 -0.561538 0.00333668 0.0228279 0.234964 0.168146 -0.111131 0.283233 0.00963131 -0.150252 -0.131612 -0.12461 0.368485 0.450271 0.809252 -0.121976 -0.228115 -0.321244 -0.0349796 0.145655 0.0968428 -0.22314 0.381275 -0.148336 0.170535 0.369708 0.00955404 -0.206805 0.443184 0.263468 0.759199 -0.415687 -0.399698 -0.0737334 -0.213637 -0.12498 0.134582 -0.666172 0.176798 -0.15307 0.364567 0.463153 -0.137654 0.27994 0.332468 -0.582082 0.338055 -0.560155 -0.0679436 0.0401373 0.176469 -0.0591352 0.206976 -0.568134 -0.276826 -0.231428 -0.432196 0.290491 -0.330772 -0.326234 0.267016 -1.29888 0.26173 -0.571506 0.244013 0.222984 0.223712 -0.476574 0.241042 -0.198853 -0.269836 0.0733119 -1.69705 0.398891 -0.373772 -0.216285 -0.143116 -1.12316 0.570176 -0.664921 0.448086 0.712082 0.12466 0.0660125 0.169731 0.357847 -0.400152 0.0437255 -0.738482 -0.210196 -0.671634 -0.0174997 -0.182319 -0.788503 0.369658 -0.806153 0.862348 0.0868392 -0.294882 0.64309 0.18552 0.609655 -0.350405 0.278544 0.608193 0.123473 -0.549398 0.242065 -0.301455 -0.154822 0.0704138 -1.07916 0.710883 -0.276711 -0.522635 0.440268 0.192073 0.332304 0.0340963 0.192258 0.245494 0.0741642 -0.182267 -0.374475 -0.34921 0.51534 0.0742036 -1.17453 0.601527 0.270087 -0.145387 -0.153094 0.108673 -0.523219 0.100176 -0.00407659 -0.315457 -0.00363321 -0.379151 -0.787362 -0.738531 0.320297 -0.364907 -1.26521 0.277975 0.465273 -0.0426498 -0.250399 -0.0122615 -0.353531 0.303348 -0.0325365 -0.187431 0.0767377 -0.120332 -0.641959 -0.453083 0.575803 -0.417438 -1.01751 -0.170971 0.659296 -0.315311 -0.10841 -0.0501801 0.122076 -0.0110212 0.11241 -0.140023 -0.0355505 -0.175601 -0.698725 -0.105602 0.360483 -0.615047 -0.260129 -0.430059 0.619116 0.232688 -0.038177 -0.0510072 -0.0324524 0.0556839 -0.320126 -0.137535 -0.362771 -0.280257 -0.547138 0.594053 0.525983 -0.343675 0.619358 -0.283204 0.259861 0.386265 -0.425712 -0.110746 0.154892 0.0870059 0.0392092 -0.753558 -0.692766 0.0823801 -0.0585457 0.0632559 0.41325 -0.331878 0.791281 -0.135155 -0.552833 0.400693 -0.683491 -0.0627396 -0.33691 -0.191355 -0.0755466 -0.512268 -0.891608 0.0111866 0.373741 0.161337 0.426215 -0.149552 0.749232 -0.0988714 -0.727361 -0.110943 -0.45526 -0.0435684 -0.387587 0.0013256 -0.132512 -0.0326699 -0.877802 -0.0273093 0.430384 0.338798 0.324167 0.318903 0.555176 -0.304705 -0.695359 -0.189039 -0.307751 -0.054052 -0.695526 0.0806465 -0.462686 0.23736 -0.41788 0.0899512 0.414311 0.50934 0.0194342 0.117036 0.727793 -0.270656 -0.505134 -0.342561 0.0318177 0.00136851 -0.291673 0.125211 -0.226324 0.115624 0.0653709 0.226884 0.702847 0.47533 -0.0802745 -0.144699 0.309925 0.0199015 -0.4489 -0.545375 0.422379 0.080511 0.42476 0.0200992 0.341043 0.230212 0.0413877 0.0359305 0.721648 0.417534 0.0208402 0.102469 -0.0831137 0.0732495 -0.00827665 -0.506391 0.483475 0.0170243 -0.212995 0.154015 0.510368 -0.010199 -0.287525 -0.180187 0.425829 0.238362 0.166216 0.566542 -0.0458316 -0.0715009 0.27373 -0.229824 0.57669 0.0410634 0.0193864 0.0800549 0.167708 -0.0454539 0.030479 -0.0729408 0.0829876 0.113752 0.131088 0.116542 0.0208741 -0.07118 0.0872556 -0.0249056 0.17856 0.0490075 0.0272174 0.062861 0.00311323 0.0759459 0.0031557 0.0074597 -0.0545787 0.0600431 0.078176 0.0300843 -0.000810645 0.0664644 0.0599762 0.00945937 -0.0124506 0.06 0.05 0.05 0 0.02 0.01 0.01 0.03 0.02 0 0.02 0.08 0.06 0.06 0.09 0.07 0.0204368 0.0879277 0.0508345 0.084341 -0.011032 -0.00414969 0.0875153 0.0795161 0.0137527 0.0697382 0.0272781 0.00940559 0.041901 0.0336711 0.0149498 -0.00309895 0.0423893 0.0720669 0.0278915 -0.0292142 -0.0217389 -0.0804758 0.0345294 0.0693013 -0.258653 0.0205385 -0.107034 -0.0305522 0.0096987 0.00950204 -0.0231984 -0.258361 -0.030846 0.111379 -0.0789716 -0.129694 0.191386 -0.129544 -0.10445 0.0143219 -0.273207 0.140333 -0.50422 -0.235674 -0.0863698 0.00175855 -0.155253 -0.338985 0.138796 -0.125961 -0.351631 -0.1375 0.480776 0.247136 -0.23681 -0.112571 -0.333446 0.0895298 -0.446471 -0.0725665 -0.36364 -0.146727 -0.289238 0.0598006 0.303334 0.0954541 -0.25692 0.0468197 0.438049 -0.0328111 0.0238136 0.153459 0.251305 0.231165 -0.264864 0.106331 -0.424922 -0.278148 -0.118647 0.171721 0.132505 0.259519 -0.262603 0.0132541 0.0662146 -0.32759 -0.18402 0.000185441 0.216819 0.0838102 0.309544 -0.0684589 -0.365903 -0.368369 0.139233 0.0594383 0.0465559 0.487036 0.304787 0.0251848 0.427924 0.0677637 0.108155 0.250358 0.60984 0.349153 0.726641 -0.193288 -0.193491 -0.0590264 0.126772 0.167335 0.0359572 -0.127049 0.243479 -0.19095 0.161713 0.146104 0.0162405 0.240816 0.544413 0.123391 0.555473 -0.547298 -0.4164 -0.0726843 -0.124297 0.199594 -0.0107233 -0.367927 -0.143746 -0.261218 0.742644 0.428775 -0.0597247 0.369889 0.203152 -0.614507 0.31112 -0.490492 -0.00869292 -0.397522 0.0955675 -0.383032 0.098905 -0.297592 -0.385357 0.0113739 0.284093 0.151149 -0.0201895 -0.00638372 0.397921 -1.30473 0.461855 -0.709413 0.279044 -0.052913 0.201668 -0.404073 0.102953 0.347667 -0.332385 0.0557109 -1.64619 0.382506 0.0350595 -0.238504 -0.248726 -1.1971 0.552683 -0.779455 0.1061 0.765089 0.185825 0.047789 0.150344 0.891549 -0.274006 -0.0477081 -1.34253 -0.0957297 -0.239624 0.291642 -0.433182 -1.04956 0.0352677 -0.627037 0.651206 0.457108 -0.074973 0.335341 0.18003 0.890819 -0.00645671 0.13975 -0.159411 0.205756 -0.159383 0.0778552 -0.697665 -0.315067 -0.0949425 -0.450724 0.580183 0.186561 -0.177332 0.0576777 0.111395 -0.0296079 0.19386 0.0720996 0.0332134 -0.0681381 -0.182828 -0.455437 -0.992436 0.0118016 -0.387787 -0.76324 0.126216 0.375322 0.203734 -0.205746 0.100141 -0.392187 0.188131 -0.456409 0.0281988 0.0421736 -0.328591 -0.852786 -0.632458 0.245641 -0.430169 -0.767583 0.0978051 0.506038 0.0561554 -0.214938 0.100869 -0.176019 0.492223 -0.347962 0.00444991 0.0202689 -0.141444 -0.775966 -0.284245 0.649779 -0.0315756 -0.748402 -0.00620047 0.731233 0.32098 0.27873 -0.0330294 -0.0905074 0.329158 -0.232141 0.0902025 -0.089748 -0.026941 -0.54884 -0.252743 0.911169 -0.529242 -0.140047 -0.214808 0.56357 0.513426 0.174123 -0.0317258 -0.430314 0.19354 -0.175413 -0.389901 -0.712029 0.0892753 -0.408995 -0.335772 0.452484 -0.328605 0.508602 -0.230422 0.0447731 0.522593 -0.26065 -0.077336 -0.488551 0.107458 0.0235093 -0.697652 -0.811848 -0.0372367 0.106831 0.0323042 0.513479 -0.0986024 0.618051 -0.0339991 -0.335652 0.281231 -0.616293 -0.0755278 -0.142181 0.154055 -0.138503 -0.298409 -0.836893 0.1067 0.343941 0.205289 0.465449 0.353266 0.605943 -0.0915239 -0.362787 0.0605342 -0.656406 -0.0466693 -0.159744 0.146272 -0.067562 0.470966 -0.637865 0.280779 0.436928 0.808743 0.370049 0.491621 0.764527 -0.234877 -0.352072 0.0237323 -0.25164 -0.0646719 0.0259889 0.0470906 -0.4125 0.189963 -0.237273 0.375808 0.592653 0.927847 0.202426 0.194124 0.747933 -0.0348852 -0.293722 -0.0833038 0.0478385 0.00504248 0.291938 0.259347 0.0496999 0.0421723 -0.0158123 0.488891 0.745336 0.676895 0.206093 0.186947 0.326104 0.392785 -0.139481 -0.313379 0.374296 0.0457156 0.320736 0.167201 0.404156 0.0936368 0.0831892 0.124471 0.595253 0.363009 0.152674 0.160913 0.060301 0.0146546 0.0990019 -0.21804 0.597663 0.0302883 -0.102121 0.112208 0.482213 -0.0176012 -0.0283444 -0.0906508 0.356376 0.153464 0.209333 0.382979 0.012876 0.0471444 0.0459649 -0.0911778 0.468056 0.0678606 -0.0421959 0.088568 0.143959 -0.00624443 0.103614 0.0165756 0.0903345 0.0357586 0.131738 0.117303 0.0449182 0.0732291 0.0595466 0.0241598 0.244295 0.019451 0.00998682 -0.0118376 0.0717353 0.0643546 0.0446546 -0.00115318 -0.0062783 0.0689858 0.0318058 0.0225509 0.0192501 0.0223769 0.0320167 -0.0126926 0.0149999 0.08 0.06 0.04 0.01 0.07 0.01 0.03 0.09 0.07 0.02 0.07 0.01 0.01 0 0.02 0.02 0.01156 0.0899884 0.0365392 0.0163887 0.0410073 0.0305783 0.0298924 0.0699917 0.0465465 0.0182164 0.079311 0.00996416 0.0404458 0.0815535 0.0789582 0.0400899 0.00237675 0.0348125 0.0535844 -0.00150298 0.0402786 -0.0261692 -0.0314477 0.0829715 -0.0796425 0.0299209 -0.0897471 0.00692789 0.00585461 -0.0110691 -0.0409439 -0.10447 0.00812695 0.0438101 -0.0330867 -0.150781 0.118639 -0.0730517 -0.0499016 0.0439678 -0.0408334 0.0803339 -0.342392 -0.0566537 -0.0335597 -0.0301541 -0.0930798 -0.169677 0.156893 0.071343 -0.184344 -0.177408 0.639294 0.311815 -0.419232 0.0230193 -0.0457708 0.132101 -0.644621 -0.0420721 -0.212237 -0.198483 -0.379536 0.0829962 0.267606 0.39366 -0.0411008 -0.183628 0.931837 0.225601 -0.2952 0.162996 0.621357 0.484301 -0.393601 0.165273 -0.221425 -0.268646 -0.262341 0.255411 0.139569 0.460568 -0.0884775 -0.380247 0.453655 0.0924979 -0.284862 0.217362 0.545629 0.23744 0.0570094 -0.156243 -0.380093 -0.230491 0.0266416 -0.125425 -0.0216902 0.417318 0.266406 -0.503807 0.73524 0.330866 -0.13861 0.253605 0.49199 0.382311 0.553096 -0.159365 -0.161589 0.130782 -0.0402262 -0.0299055 -0.0329354 0.0409084 -0.0186993 -0.463564 0.483665 0.295821 0.0168503 0.0381135 0.402452 -0.134798 0.620911 -0.455459 -0.317878 -0.197167 -0.0476831 -0.232417 -0.0958989 -0.162371 -0.513599 -0.249653 1.00136 0.300109 -0.0850807 0.00855646 0.42307 -0.822828 0.402777 -0.70225 -0.156966 -0.228765 0.209757 -0.456684 -0.0332789 -0.0314164 -0.505034 0.266723 0.187607 -0.0176286 -0.143622 0.0131734 0.528693 -1.46129 0.711144 -0.797851 0.0131086 -0.106913 0.157259 -0.539628 0.0174335 0.446955 -0.400455 0.37454 -1.60642 -0.0804738 -0.170821 0.0228904 0.0493379 -1.7179 0.261339 -0.677105 0.096176 0.277376 0.0192665 -0.34547 0.0269263 1.14896 -0.00347734 0.238932 -1.97196 -0.382794 -0.175648 0.349258 -0.718973 -1.27513 0.000894828 -0.383448 0.271842 0.99452 -0.102729 -0.0815716 0.122383 1.38276 0.246056 0.278532 -1.18097 -0.27569 -0.0968398 0.098379 -0.756117 -0.661616 -0.102229 -0.307997 0.202457 1.13773 -0.0419629 -0.314484 0.0819176 0.568589 0.452527 -0.126785 -0.601157 0.0200154 -0.0879984 -0.296996 -0.812434 -0.17629 -0.538134 -0.474678 -0.212982 1.16959 0.192681 -0.358936 0.0525914 -0.630575 0.133646 -0.258499 -0.548331 0.00495372 -0.0692681 -1.01933 -0.642392 -0.0941723 -0.640869 -0.479089 -0.337772 0.747083 0.0566576 -0.173248 0.0362234 -0.756725 0.329348 -0.0851167 -0.0882134 -0.108481 0.131712 -0.545123 -0.0950999 0.517256 -0.15475 -0.301149 -0.137684 0.55993 0.361984 0.360817 -0.020088 -0.654485 0.38382 -0.265774 -0.336921 -0.33507 0.0498851 -0.496663 -0.121531 0.597131 -0.371846 0.0301337 0.0562159 -0.104315 0.43239 0.0578071 -0.0688296 -0.643337 0.200082 0.104425 -0.486088 -1.03619 0.159099 -0.325764 -0.0723628 0.271296 0.0739746 0.514289 0.150421 -0.621644 0.502838 -0.439726 -0.0777738 -0.217814 0.107165 0.0735893 0.0026189 -1.21331 -0.128052 0.0759533 0.240524 0.304545 0.302339 0.324568 0.0356192 -0.692577 0.430033 -0.533986 -0.101972 0.23327 0.0599106 -0.0546301 0.505248 -0.995997 -0.0562007 0.459165 0.639568 0.421042 0.452374 0.512232 -0.167685 -0.530179 0.294608 -0.461899 -0.0699739 0.262417 0.00921233 -0.0407297 0.384646 -0.588644 0.212546 0.67291 0.959927 0.193083 0.509014 0.666634 -0.017626 -0.477467 0.207302 -0.307725 -0.0765081 0.090361 0.164027 0.0933069 -0.0453859 -0.310665 0.479454 0.483301 0.797766 0.143687 0.440056 0.566036 0.00611348 -0.126716 0.109711 -0.0413572 -0.0297714 0.400826 0.281199 0.366211 0.0536088 -0.0735647 0.321791 0.465065 0.441283 0.045239 0.425921 0.19037 0.259016 0.0317312 -0.127426 0.208009 0.00282284 0.184799 0.146555 0.400768 0.115174 0.0119573 0.0562361 0.335282 0.141896 -0.0286065 0.219256 0.174261 0.17355 0.0573073 -0.149386 0.361759 0.0883519 -0.0201243 0.136582 0.195774 0.0714639 -0.00500581 -0.0581976 0.129109 0.112493 0.154169 0.14438 0.0781319 -0.0107227 -0.0206806 -0.0660836 0.257998 0.091889 -0.0682705 0.0258168 0.082134 0.0302369 0.0253682 0.0772834 0.0598481 0.0896413 0.0411991 0.0489292 0.0454827 0.0207818 0.000403309 0.0574917 0.105362 0.0309891 0.08315 -0.0184429 0.0348212 -0.00304051 0.0422972 0.0789897 0.0225506 0.0807993 0.0358824 0.0306255 0.0394805 0.0475601 0.0254854 0.0426468 0.00327438 0.06 0.03 0.09 0 0 0.08 0.06 0.05 0.06 0.06 0.05 0 0.01 0.04 0.07 0.04 0.08021 0.0100318 0.0763311 0.029109 -0.00656605 0.0574839 0.0698513 0.0399893 0.0341016 0.089798 3.17055e-05 0.0400402 0.0200065 0.0489211 0.0834608 0.00835161 0.0275289 0.0441399 0.06718 0.00564759 0.0383943 -0.0185915 -0.00272097 -0.00155491 -0.0464521 0.0474995 -0.0288179 0.00840772 0.0250801 0.05155 0.0666226 -0.000970369 0.028389 0.0383017 -0.0570834 0.0182458 -0.00931579 -0.107584 0.0126621 0.00239419 -0.143718 0.0257191 -0.248206 -0.013826 -0.0212525 -0.022997 -0.0475267 -0.0940003 0.0761615 0.39147 -0.00263991 0.0346651 0.559456 0.265067 -0.218768 0.175846 0.0844848 0.159034 -0.484281 -0.123276 -0.0731272 -0.0490088 -0.315847 0.0297437 0.128732 0.572757 0.0431002 -0.179025 0.889245 0.198097 -0.277823 0.296503 0.579019 0.449161 -0.541828 -0.199303 -0.0724015 -0.142679 -0.451198 0.0313205 0.0636215 0.697981 -0.0132704 -0.176305 0.918226 0.135202 -0.507582 0.496502 1.02156 0.435912 -0.357265 -0.269266 -0.0579413 -0.610409 -0.225362 -0.228952 -0.100398 0.863422 0.229045 -0.185819 1.06874 0.233038 -0.532658 0.369936 0.917059 0.417889 -0.162497 -0.379634 -0.250672 -0.446262 -0.065675 -0.462601 -0.183291 0.834615 0.362367 -0.247018 1.35922 0.342967 -0.238858 0.270185 0.863513 0.0859033 0.0853774 -0.701546 -0.407889 -0.462626 0.207496 -0.673194 -0.151475 0.372797 0.0740354 0.0846958 1.563 0.104901 -0.13541 0.308536 0.619558 -0.95688 0.409245 -0.627197 -0.576227 -0.469001 0.48163 -0.874848 -0.0557508 0.0989914 -0.224742 0.429298 -0.0547281 -0.224033 -0.0817959 0.192666 0.473947 -1.56637 0.485521 -0.552637 -0.724354 -0.493418 0.401608 -0.953707 -0.0308035 0.417875 -0.403616 0.286744 -1.56694 -0.668988 -0.265239 0.181003 -0.272781 -1.49604 0.15789 -0.452768 -0.552078 -0.266864 0.0627887 -0.821176 -0.0114111 0.868298 -0.213915 0.220167 -2.07972 -0.723347 -0.201937 0.099544 -1.06956 -1.26492 -0.304169 -0.160514 -0.120449 0.441411 -0.128594 -0.616325 0.0468624 0.837466 0.178362 0.003001 -1.8834 -0.463693 -0.171746 -0.19605 -1.32651 -0.693593 -0.378699 -0.271146 -0.205635 0.985161 0.1372 -0.707932 0.0824655 0.533715 0.388591 -0.0468861 -1.30705 -0.0109862 -0.237354 -0.477712 -1.07008 -0.0888393 -0.41129 -0.299431 -0.416291 0.832226 0.249345 -0.518114 0.0360588 -0.220754 0.148551 0.0276948 -0.842241 0.00325096 -0.339969 -0.894624 -0.830185 0.146635 -0.469077 -0.318953 -0.413453 0.536891 0.0628769 -0.110275 0.000144659 -0.563232 -0.065377 -0.246509 -0.455219 -0.223154 0.102861 -0.646274 -0.415376 0.0953376 -0.359998 -0.217231 0.0364703 -0.216679 0.187611 0.27944 -0.00980885 -0.362113 -0.0218443 -0.443923 -0.216169 -0.26103 0.366441 -0.433762 -0.410042 0.337882 -0.501725 0.255522 0.0767618 -0.641189 0.317781 0.226789 -0.0910071 -0.0713111 0.0940667 -0.387527 0.175289 -0.579193 0.547567 -0.156143 0.00427846 0.652534 0.151138 0.637175 0.439711 -0.544338 0.432323 -0.0594848 -0.0811976 0.0696885 0.0784831 -0.15336 0.349793 -0.652137 0.498692 0.174926 0.364326 0.63907 0.492115 0.555199 0.228805 -0.489222 0.472968 